[{"weights":{"0":0.326884001493454,"1":0.2577784061431885,"2":0.08170607686042786,"3":0.05802373215556145,"4":-0.33391430974006653,"5":0.2670871317386627,"6":-0.39093291759490967,"7":0.3540782928466797,"8":0.33113741874694824,"9":0.28788965940475464,"10":-0.3185149133205414,"11":-0.06508687138557434,"12":0.2649378776550293,"13":0.060333456844091415,"14":0.23870711028575897,"15":0.16933773458003998,"16":0.1285703033208847,"17":0.14569611847400665,"18":0.17433160543441772,"19":0.30003100633621216,"20":0.17013141512870789,"21":0.21418732404708862,"22":-0.314851850271225,"23":0.13794904947280884,"24":0.4592970013618469,"25":0.21679262816905975,"26":-0.1873929649591446,"27":-0.29386240243911743,"28":0.07015978544950485,"29":0.39324164390563965,"30":0.3258253037929535,"31":0.17001137137413025,"32":0.27396005392074585,"33":0.17454439401626587,"34":-0.20165789127349854,"35":-0.055777084082365036,"36":0.23435385525226593,"37":-0.052065957337617874,"38":0.10119810700416565,"39":-0.23867657780647278,"40":0.40444788336753845,"41":0.18139207363128662,"42":0.22927969694137573,"43":-0.24211227893829346,"44":0.13466602563858032,"45":0.4322681128978729,"46":0.4143705368041992,"47":0.27155357599258423,"48":0.03411562740802765,"49":0.1310030221939087,"50":0.22851420938968658,"51":0.18991801142692566,"52":0.26029345393180847,"53":0.2132454812526703,"54":-0.3644552528858185,"55":0.32569193840026855,"56":0.13024786114692688,"57":-0.23302017152309418,"58":-0.39124011993408203,"59":0.06267045438289642,"60":0.3610574007034302,"61":-0.2996061146259308,"62":0.00003210396971553564,"63":0.1549144834280014,"64":0.18968525528907776,"65":0.27862173318862915,"66":0.2962435483932495,"67":0.31374412775039673,"68":0.3730698525905609,"69":0.24194584786891937,"70":-0.02620599791407585,"71":0.42611071467399597,"72":0.30747509002685547,"73":0.07343246042728424,"74":0.08735601603984833,"75":-0.015344846993684769,"76":0.2305362969636917,"77":-0.0071262093260884285,"78":0.299768328666687,"79":0.23430420458316803,"80":0.031163053587079048,"81":0.40618211030960083,"82":0.08880573511123657,"83":0.001415150472894311,"84":0.1447148621082306,"85":-0.3460470139980316,"86":0.3666917681694031,"87":0.31422367691993713,"88":0.4300960898399353,"89":0.0450390987098217,"90":0.27314993739128113,"91":-0.10760131478309631,"92":0.04419644549489021,"93":0.17517907917499542,"94":0.09298364818096161,"95":0.19153329730033875,"96":-0.12299319356679916,"97":-0.1450202465057373,"98":0.26509949564933777,"99":-0.06978487968444824,"100":0.32486066222190857,"101":0.21887214481830597,"102":0.025274749845266342,"103":0.0805000364780426,"104":-0.15292921662330627,"105":-0.18676473200321198,"106":-0.0847151055932045,"107":0.18881306052207947,"108":0.04854635149240494,"109":-0.42634105682373047,"110":-0.146462082862854,"111":0.14489099383354187,"112":-0.40944570302963257,"113":0.19958283007144928,"114":0.3934386968612671,"115":0.13003192842006683,"116":-0.06557238101959229,"117":-0.010316426865756512,"118":0.26728951930999756,"119":0.20977209508419037,"120":-0.04842883348464966,"121":-0.3069627285003662,"122":-0.04863593354821205,"123":0.2854708731174469,"124":0.07783392071723938,"125":-0.10353843122720718,"126":0.20909301936626434,"127":0.31578290462493896,"128":-0.3151783347129822,"129":0.383819580078125,"130":0.010463633574545383,"131":0.4638218879699707,"132":0.10014764964580536,"133":-0.3007257580757141,"134":0.2981627881526947,"135":0.1111992597579956,"136":0.23050738871097565,"137":-0.17980284988880157,"138":0.22499606013298035,"139":0.1925468146800995,"140":-0.10427386313676834,"141":0.17865510284900665,"142":0.2581428587436676,"143":0.11344411969184875},"bias":{"0":0.04548107832670212,"1":-0.004056117497384548,"2":-0.0010182608384639025,"3":-0.00938044860959053,"4":-0.0006978085148148239,"5":-0.0005309405969455838,"6":0.02737867645919323,"7":-0.0008234691922552884,"8":-0.003051725449040532,"9":0.07124889642000198,"10":0.035695869475603104,"11":0.009662597440183163,"12":-0.0021868457552045584,"13":-0.015443536452949047,"14":-0.006371614057570696,"15":0.0015003627631813288}},{"weights":[],"bias":[]},{"weights":{"0":0.015480607748031616,"1":-0.052908677607774734,"2":-0.14153610169887543,"3":-0.2129679173231125,"4":-0.10881190747022629,"5":0.23176361620426178,"6":0.07286763191223145,"7":-0.16800238192081451,"8":-0.1157480776309967,"9":0.02805912308394909,"10":-0.022017857059836388,"11":-0.20508772134780884,"12":0.031417567282915115,"13":-0.25865650177001953,"14":0.062059324234724045,"15":0.018317678943276405,"16":-0.10100380331277847,"17":-0.041177716106176376,"18":-0.06391195207834244,"19":0.12054823338985443,"20":0.10548166185617447,"21":-0.11942224204540253,"22":0.10355129837989807,"23":-0.1705475151538849,"24":-0.16696344316005707,"25":-0.10934820026159286,"26":0.10969782620668411,"27":-0.10826068371534348,"28":0.17823165655136108,"29":-0.1527848243713379,"30":-0.06223307549953461,"31":-0.20694255828857422,"32":-0.05445322021842003,"33":-0.008997426368296146,"34":0.08990395069122314,"35":-0.025131044909358025,"36":0.154535174369812,"37":0.18441173434257507,"38":0.0031723191495984793,"39":0.0466323122382164,"40":-0.04726704582571983,"41":0.01859586127102375,"42":0.16438962519168854,"43":0.11852401494979858,"44":0.03178512677550316,"45":-0.001197940087877214,"46":-0.05813365802168846,"47":0.03419597074389458,"48":0.09485607594251633,"49":0.062161773443222046,"50":0.08899553120136261,"51":-0.017546851187944412,"52":0.047981757670640945,"53":0.06410897523164749,"54":0.028107741847634315,"55":-0.08862128853797913,"56":0.08799687027931213,"57":-0.124367356300354,"58":-0.12405107170343399,"59":0.09966597706079483,"60":-0.010992824099957943,"61":-0.012428955174982548,"62":0.03129689767956734,"63":-0.08287974447011948,"64":-0.09985700994729996,"65":-0.054111965000629425,"66":-0.030773254111409187,"67":0.09666750580072403,"68":0.08444935828447342,"69":0.1387455016374588,"70":0.01616833545267582,"71":-0.005174377001821995,"72":0.02009924314916134,"73":-0.08309146016836166,"74":0.1976006180047989,"75":0.055009569972753525,"76":0.010101480409502983,"77":-0.11347175389528275,"78":-0.07681290805339813,"79":0.07038422673940659,"80":0.026689300313591957,"81":-0.023663802072405815,"82":0.04657844454050064,"83":0.0558331236243248,"84":0.009523344226181507,"85":-0.15614639222621918,"86":0.04308439791202545,"87":0.11390100419521332,"88":-0.09951821714639664,"89":-0.03844829648733139,"90":-0.01598786562681198,"91":-0.004669962450861931,"92":-0.13115234673023224,"93":-0.0938134416937828,"94":-0.10250825434923172,"95":-0.08903626352548599,"96":0.02646966278553009,"97":-0.0017393999733030796,"98":0.0751803070306778,"99":0.11670966446399689,"100":0.17899860441684723,"101":0.1905507594347,"102":-0.09016289561986923,"103":0.05641881749033928,"104":0.022152982652187347,"105":-0.014762134291231632,"106":0.007831525057554245,"107":0.015402487479150295,"108":0.05211552977561951,"109":0.0435677208006382,"110":-0.03419633209705353,"111":0.13862772285938263,"112":-0.10349321365356445,"113":-0.018890686333179474,"114":-0.0988040417432785,"115":0.031714919954538345,"116":-0.04041365161538124,"117":-0.09769473969936371,"118":0.13651293516159058,"119":0.13852857053279877,"120":-0.06495754420757294,"121":0.014426257461309433,"122":0.0046945479698479176,"123":0.038527779281139374,"124":0.007470184471458197,"125":0.07313805818557739,"126":-0.051225628703832626,"127":-0.0683208778500557,"128":-0.1184859499335289,"129":-0.010064887814223766,"130":0.13130973279476166,"131":-0.006343643181025982,"132":0.15838927030563354,"133":0.06060947850346565,"134":-0.07021279633045197,"135":0.06013105809688568,"136":0.15060864388942719,"137":-0.009495211765170097,"138":0.0524500273168087,"139":-0.011886650696396828,"140":0.18705150485038757,"141":0.030679425224661827,"142":0.009824620559811592,"143":0.04560761898756027,"144":-0.03800520673394203,"145":-0.054388903081417084,"146":0.018948959186673164,"147":0.13216324150562286,"148":-0.07097145915031433,"149":0.013481060042977333,"150":0.13910019397735596,"151":0.0238206647336483,"152":-0.12933197617530823,"153":-0.04629774019122124,"154":0.07663938403129578,"155":0.09585439413785934,"156":-0.1725059598684311,"157":0.05394672229886055,"158":-0.12127816677093506,"159":-0.22406592965126038,"160":0.0007876149611547589,"161":-0.10187827795743942,"162":0.036515288054943085,"163":-0.18838275969028473,"164":-0.047445617616176605,"165":0.08255268633365631,"166":0.10923492908477783,"167":0.134627565741539,"168":-0.00042582230526022613,"169":0.10154669731855392,"170":0.18697646260261536,"171":0.04059432074427605,"172":0.09030109643936157,"173":-0.1392083764076233,"174":-0.004571870900690556,"175":0.12501348555088043,"176":-0.11980139464139938,"177":-0.06833422183990479,"178":-0.06521086394786835,"179":-0.08337745815515518,"180":0.022445961833000183,"181":-0.20913390815258026,"182":0.037289079278707504,"183":-0.058460600674152374,"184":-0.15517200529575348,"185":-0.18120448291301727,"186":0.09838423132896423,"187":-0.05352862551808357,"188":-0.058610402047634125,"189":0.090176060795784,"190":0.05413156747817993,"191":-0.18736156821250916,"192":-0.0001971553429029882,"193":-0.12854769825935364,"194":0.04919497296214104,"195":-0.06531336903572083,"196":0.13062603771686554,"197":0.10698938369750977,"198":-0.00999849010258913,"199":0.2558348774909973,"200":-0.013295212760567665,"201":-0.009098460897803307,"202":-0.021396126598119736,"203":-0.09855253994464874,"204":0.08892607688903809,"205":-0.030590984970331192,"206":0.05384177342057228,"207":-0.10266193747520447,"208":0.21211257576942444,"209":-0.05779853090643883,"210":0.004040716215968132,"211":-0.0465860590338707,"212":-0.03255961835384369,"213":0.1275000125169754,"214":0.06335172802209854,"215":-0.010384549386799335,"216":0.08961204439401627,"217":0.035570964217185974,"218":0.05329863727092743,"219":0.14754311740398407,"220":-0.05636269599199295,"221":0.011301654390990734,"222":-0.024335337802767754,"223":-0.032820336520671844,"224":0.06163881719112396,"225":-0.05144959315657616,"226":0.08746980130672455,"227":-0.006079163867980242,"228":0.09323170781135559,"229":0.14831171929836273,"230":0.057187847793102264,"231":0.07184501737356186,"232":-0.10615949332714081,"233":0.01606130599975586,"234":0.21038639545440674,"235":-0.0668584480881691,"236":-0.0066390493884682655,"237":0.05648711696267128,"238":0.08204060047864914,"239":0.08085134625434875,"240":0.005115678999572992,"241":-0.029713505879044533,"242":-0.07806112617254257,"243":-0.018554626032710075,"244":0.009362374432384968,"245":0.050262562930583954,"246":0.07507072389125824,"247":0.07708726078271866,"248":-0.17637252807617188,"249":-0.018235549330711365,"250":-0.012326494790613651,"251":-0.09871714562177658,"252":-0.24970974028110504,"253":0.040499281138181686,"254":-0.1783279925584793,"255":0.023265406489372253,"256":-0.17177721858024597,"257":0.08791889250278473,"258":0.0284772627055645,"259":0.0336374007165432,"260":0.06676174700260162,"261":0.055985841900110245,"262":-0.11110233515501022,"263":0.09396425634622574,"264":-0.08606182783842087,"265":0.00622173398733139,"266":0.13126033544540405,"267":0.1007804274559021,"268":0.10326028615236282,"269":-0.028233017772436142,"270":-0.07064889371395111,"271":0.07244366407394409,"272":-0.007201244123280048,"273":-0.0662638247013092,"274":0.0624527744948864,"275":0.023131515830755234,"276":0.07298465818166733,"277":-0.017126094549894333,"278":-0.04926590248942375,"279":-0.0004803683259524405,"280":-0.004437805153429508,"281":-0.1707407385110855,"282":0.038083117455244064,"283":-0.019952595233917236,"284":-0.12964770197868347,"285":0.04692067950963974,"286":-0.03987463563680649,"287":-0.08724310994148254,"288":-0.059225935488939285,"289":0.05328359827399254,"290":0.11360124498605728,"291":0.06210362911224365,"292":-0.3043018579483032,"293":-0.07227061688899994,"294":0.08077796548604965,"295":-0.4115658700466156,"296":-0.17528867721557617,"297":-0.14849936962127686,"298":-0.13246552646160126,"299":-0.01724110171198845,"300":0.017279190942645073,"301":-0.35718607902526855,"302":-0.14357493817806244,"303":0.19760310649871826,"304":-0.23458951711654663,"305":0.12688934803009033,"306":0.018856171518564224,"307":0.04719516262412071,"308":-0.004808738827705383,"309":-0.23795099556446075,"310":-0.1807798147201538,"311":0.009517586790025234,"312":-0.09033966064453125,"313":-0.11939314752817154,"314":0.14767242968082428,"315":-0.21299977600574493,"316":0.25368744134902954,"317":-0.31398507952690125,"318":-0.01843176782131195,"319":-0.044810958206653595,"320":-0.07497063279151917,"321":0.07884379476308823,"322":-0.044161029160022736,"323":-0.06791942566633224,"324":-0.016725854948163033,"325":0.024834217503666878,"326":-0.05816849321126938,"327":0.264993816614151,"328":-0.07117904722690582,"329":-0.06651562452316284,"330":0.2026302069425583,"331":0.021344609558582306,"332":0.10110551863908768,"333":0.00860342476516962,"334":0.1420709788799286,"335":0.014840184710919857,"336":-0.00431648176163435,"337":-0.02911260537803173,"338":-0.06668724119663239,"339":-0.15713095664978027,"340":-0.006799985654652119,"341":0.10530000925064087,"342":0.00830411072820425,"343":-0.1353764832019806,"344":0.1141505092382431,"345":-0.05645940452814102,"346":-0.036708466708660126,"347":0.04405000060796738,"348":-0.12720991671085358,"349":-0.048015378415584564,"350":-0.10269927233457565,"351":-0.064203180372715,"352":-0.07715828716754913,"353":-0.10814663022756577,"354":0.143584206700325,"355":0.21598093211650848,"356":0.09522230923175812,"357":-0.26290953159332275,"358":-0.06935541331768036,"359":-0.126692533493042,"360":-0.06276117265224457,"361":-0.11984318494796753,"362":-0.028969649225473404,"363":0.14751362800598145,"364":0.01524735614657402,"365":-0.09264720976352692,"366":-0.16911955177783966,"367":0.10389603674411774,"368":0.05589348450303078,"369":-0.051930759102106094,"370":0.004718456882983446,"371":0.04165098816156387,"372":-0.33818519115448,"373":-0.11605419218540192,"374":-0.015292701311409473,"375":0.34246426820755005,"376":-0.17080503702163696,"377":0.20479749143123627,"378":-0.08086951822042465,"379":0.14993546903133392,"380":-0.13793423771858215,"381":-0.1855846643447876,"382":-0.019210422411561012,"383":0.1067354753613472,"384":-0.006375632248818874,"385":0.1010487973690033,"386":-0.02232068032026291,"387":-0.06509750336408615,"388":0.15200380980968475,"389":0.13222578167915344,"390":-0.00391162745654583,"391":-0.018334319815039635,"392":0.022545699030160904,"393":0.1011146828532219,"394":0.1176028698682785,"395":0.032127898186445236,"396":0.007922661490738392,"397":0.0008256097207777202,"398":-0.05521218106150627,"399":0.05633481219410896,"400":0.026333890855312347,"401":-0.12897410988807678,"402":0.03438933566212654,"403":0.0605456605553627,"404":0.007371766027063131,"405":-0.10559023171663284,"406":0.05441479757428169,"407":0.044044844806194305,"408":0.017304470762610435,"409":0.07403288036584854,"410":-0.0715891495347023,"411":-0.03874046728014946,"412":-0.06447035819292068,"413":-0.009952526539564133,"414":-0.050054777413606644,"415":0.014702759683132172,"416":-0.03963564336299896,"417":0.10871628671884537,"418":0.11332941055297852,"419":0.02096337266266346,"420":0.008056335151195526,"421":0.017597287893295288,"422":0.06864818185567856,"423":0.02602454088628292,"424":-0.05663779005408287,"425":-0.04737216979265213,"426":0.1454874873161316,"427":-0.00834568403661251,"428":-0.053278692066669464,"429":0.02693982608616352,"430":0.12434808909893036,"431":0.19653865694999695,"432":-0.0017007194692268968,"433":0.000280108826700598,"434":0.07262031733989716,"435":-0.10229779779911041,"436":0.06365176290273666,"437":-0.0023385777603834867,"438":-0.06498698890209198,"439":-0.24654604494571686,"440":0.15809758007526398,"441":-0.018004609271883965,"442":0.10687953978776932,"443":0.05250168964266777,"444":-0.055770594626665115,"445":-0.05923055484890938,"446":-0.007357378490269184,"447":-0.11822450160980225,"448":0.012653464451432228,"449":0.024548595771193504,"450":0.030224328860640526,"451":0.11376956105232239,"452":0.07141271978616714,"453":0.030307846143841743,"454":0.046566832810640335,"455":0.06571723520755768,"456":-0.026060165837407112,"457":-0.13439154624938965,"458":0.005596805363893509,"459":0.05195946991443634,"460":-0.020422935485839844,"461":0.07366778701543808,"462":-0.0778607577085495,"463":-0.06914474815130234,"464":0.001037549925968051,"465":0.004034280776977539,"466":-0.04938148707151413,"467":0.027019470930099487,"468":0.16866172850131989,"469":-0.03567067161202431,"470":0.04457448422908783,"471":-0.09512681514024734,"472":-0.026643531396985054,"473":-0.06736259162425995,"474":-0.06139754131436348,"475":0.08554437011480331,"476":-0.1035270169377327,"477":0.051833949983119965,"478":-0.06977042555809021,"479":-0.14204993844032288,"480":0.037891607731580734,"481":-0.05718139559030533,"482":0.021141452714800835,"483":-0.06553894281387329,"484":0.05039732903242111,"485":0.11007658392190933,"486":-0.0025438154116272926,"487":-0.1265137493610382,"488":-0.07179814577102661,"489":-0.11595839262008667,"490":0.0780118927359581,"491":-0.057260096073150635,"492":-0.017976917326450348,"493":0.03528611361980438,"494":0.0662074089050293,"495":0.017414789646863937,"496":0.08788695931434631,"497":-0.012036427855491638,"498":-0.07374534755945206,"499":0.030948037281632423,"500":0.013525525107979774,"501":0.012300287373363972,"502":0.03052951581776142,"503":-0.04419228062033653,"504":-0.07863789796829224,"505":0.009235250763595104,"506":0.029115641489624977,"507":0.04496631771326065,"508":-0.04179997369647026,"509":0.0942123606801033,"510":-0.0017076150979846716,"511":-0.13044562935829163,"512":-0.11487437039613724,"513":-0.03803691640496254,"514":-0.17042139172554016,"515":-0.1138167604804039,"516":-0.11932634562253952,"517":0.1355973780155182,"518":0.1243879497051239,"519":0.11932402849197388,"520":-0.14717897772789001,"521":0.0391884483397007,"522":0.09669502824544907,"523":-0.05546842887997627,"524":0.007134047336876392,"525":-0.04169222712516785,"526":-0.06165967509150505,"527":0.1244758814573288,"528":0.02619333751499653,"529":0.10389620065689087,"530":-0.007405948359519243,"531":-0.10053558647632599,"532":0.08194378018379211,"533":-0.027085471898317337,"534":0.2248937040567398,"535":-0.04766141250729561,"536":-0.20262834429740906,"537":-0.22135162353515625,"538":0.024899905547499657,"539":-0.04869768023490906,"540":0.13236957788467407,"541":-0.055667694658041,"542":-0.21881064772605896,"543":-0.2914673686027527,"544":-0.03216572850942612,"545":0.09700363129377365,"546":-0.05874128267168999,"547":0.07269430160522461,"548":-0.0588599294424057,"549":0.18058253824710846,"550":-0.040771033614873886,"551":-0.12678728997707367,"552":0.036667853593826294,"553":0.12669534981250763,"554":-0.06577963382005692,"555":0.022729042917490005,"556":0.10210299491882324,"557":0.05200233682990074,"558":-0.11760395020246506,"559":0.14066825807094574,"560":-0.020905671641230583,"561":-0.07298769801855087,"562":-0.0050869714468717575,"563":0.010241889394819736,"564":-0.08167116343975067,"565":0.01932257041335106,"566":0.1514187902212143,"567":-0.08640070259571075,"568":0.14205220341682434,"569":0.13117529451847076,"570":0.020235782489180565,"571":-0.035651810467243195,"572":-0.12410680204629898,"573":0.036658305674791336,"574":-0.07245830446481705,"575":-0.03595292568206787,"576":-0.09439391642808914,"577":0.022999824956059456,"578":0.06703846901655197,"579":-0.025125473737716675,"580":0.05703219771385193,"581":0.14653176069259644,"582":-0.059145305305719376,"583":0.034136779606342316,"584":-0.09119326621294022,"585":0.01382711622864008,"586":-0.04920507222414017,"587":0.0603862963616848,"588":0.005052221938967705,"589":0.13571250438690186,"590":-0.04437858611345291,"591":0.06515397876501083,"592":0.11455982178449631,"593":-0.07483551651239395,"594":0.030499564483761787,"595":0.03818845748901367,"596":-0.15389204025268555,"597":0.08791802078485489,"598":0.06286688148975372,"599":0.006987185217440128,"600":0.05867106467485428,"601":0.08507781475782394,"602":0.01766163855791092,"603":0.027084926143288612,"604":-0.16127368807792664,"605":-0.00853948388248682,"606":-0.16513636708259583,"607":0.06117546930909157,"608":0.05605284497141838,"609":0.11842617392539978,"610":0.027195263653993607,"611":0.10677926987409592,"612":0.045958057045936584,"613":0.052016910165548325,"614":-0.03617752715945244,"615":-0.07270641624927521,"616":-0.05459200218319893,"617":-0.049773912876844406,"618":-0.006303137633949518,"619":-0.01623699814081192,"620":0.10396938771009445,"621":-0.08023004978895187,"622":-0.07265418022871017,"623":0.004825964104384184,"624":-0.07304311543703079,"625":-0.11539370566606522,"626":0.06505327671766281,"627":0.130470871925354,"628":-0.06853393465280533,"629":0.00013162859249860048,"630":-0.00678599439561367,"631":-0.16675136983394623,"632":0.07796213030815125,"633":-0.10531190782785416,"634":0.08765673637390137,"635":0.041917141526937485,"636":-0.0894029289484024,"637":-0.007471410557627678,"638":-0.03973696753382683,"639":0.008247042074799538,"640":-0.08580052852630615,"641":0.06483933329582214,"642":-0.08856915682554245,"643":-0.002553819213062525,"644":-0.04731655865907669,"645":0.1702800691127777,"646":-0.004865633323788643,"647":-0.00595759367570281,"648":-0.02726619318127632,"649":0.027408067137002945,"650":-0.05810684338212013,"651":-0.04897987097501755,"652":-0.06227739155292511,"653":0.007869326509535313,"654":-0.018564878031611443,"655":0.12054166942834854,"656":0.1784372478723526,"657":0.10994700342416763,"658":-0.006988962646573782,"659":0.050201524049043655,"660":-0.09254574030637741,"661":0.04042060673236847,"662":0.06830223649740219,"663":-0.09985945373773575,"664":0.000020346171368146315,"665":0.11148729175329208,"666":-0.08620285242795944,"667":0.07126079499721527,"668":-0.10901376605033875,"669":-0.013888537883758545,"670":-0.2632822096347809,"671":-0.11598220467567444,"672":-0.06362719088792801,"673":-0.05608494207262993,"674":0.08032874763011932,"675":-0.21792936325073242,"676":0.03878751024603844,"677":0.180758997797966,"678":-0.0005072859348729253,"679":0.25648465752601624,"680":0.04735285043716431,"681":0.028414450585842133,"682":0.0026787295937538147,"683":-0.0434991791844368,"684":0.03215794637799263,"685":-0.013298503123223782,"686":0.11001799255609512,"687":0.040373094379901886,"688":-0.023822488263249397,"689":0.02862965688109398,"690":-0.0038106825668364763,"691":-0.011293583549559116,"692":-0.01808931492269039,"693":0.1970183253288269,"694":-0.03513818234205246,"695":-0.1927347183227539,"696":0.08132091164588928,"697":-0.10056819021701813,"698":-0.07709351181983948,"699":0.16013790667057037,"700":-0.21118642389774323,"701":0.07344081997871399,"702":-0.08723844587802887,"703":-0.24172697961330414,"704":0.0203660037368536,"705":-0.049029815942049026,"706":-0.09291409701108932,"707":-0.04685594141483307,"708":-0.046379394829273224,"709":-0.07259341329336166,"710":0.3077191114425659,"711":0.21005965769290924,"712":0.12374792993068695,"713":0.008359734900295734,"714":-0.21791037917137146,"715":0.04469570890069008,"716":-0.06298428773880005,"717":-0.047530967742204666,"718":-0.04388786107301712,"719":0.044812899082899094,"720":0.24004757404327393,"721":0.10524813085794449,"722":-0.03952600806951523,"723":-0.014918169938027859,"724":-0.06913433223962784,"725":0.03719606623053551,"726":0.04872927814722061,"727":-0.19367051124572754,"728":0.01382218487560749,"729":0.08597944676876068,"730":-0.23058119416236877,"731":0.1810743659734726,"732":0.15267378091812134,"733":0.02606639452278614,"734":0.0441751703619957,"735":0.18385732173919678,"736":-0.11101029813289642,"737":0.098968006670475,"738":0.017091024667024612,"739":0.04209171608090401,"740":-0.11205913871526718,"741":0.21776095032691956,"742":-0.02810944803059101,"743":0.0011535799130797386,"744":-0.017624525353312492,"745":-0.0441887229681015,"746":0.03299181908369064,"747":-0.07971661537885666,"748":0.07726040482521057,"749":0.04303154721856117,"750":-0.003898610593751073,"751":0.1364014893770218,"752":-0.06657194346189499,"753":-0.022406380623579025,"754":0.0761399045586586,"755":-0.011760889552533627,"756":-0.035383157432079315,"757":0.09074671566486359,"758":0.013892857357859612,"759":-0.19516412913799286,"760":0.018388012424111366,"761":0.08173789829015732,"762":0.0938759446144104,"763":0.06399673223495483,"764":-0.04350345954298973,"765":0.07615723460912704,"766":-0.20673571527004242,"767":-0.04988301545381546,"768":0.052437786012887955,"769":0.007196078542619944,"770":-0.15039926767349243,"771":-0.09584967792034149,"772":-0.08739462494850159,"773":0.12942750751972198,"774":-0.008555427193641663,"775":0.005854414775967598,"776":-0.027092887088656425,"777":0.06336522847414017,"778":-0.08535748720169067,"779":-0.12172935903072357,"780":0.061946891248226166,"781":-0.06439036130905151,"782":-0.0866815522313118,"783":0.04597719758749008,"784":0.09644215553998947,"785":0.04387941583991051,"786":-0.004963837098330259,"787":0.07142666727304459,"788":-0.07442115247249603,"789":0.07020395249128342,"790":0.1256905198097229,"791":-0.171466663479805,"792":0.04613877087831497,"793":-0.06813041865825653,"794":-0.02080090530216694,"795":-0.035593099892139435,"796":-0.2258790284395218,"797":-0.0026179319247603416,"798":-0.08854053914546967,"799":0.003105283249169588,"800":-0.2411523461341858,"801":-0.027341477572917938,"802":-0.21268917620182037,"803":-0.12172611802816391,"804":-0.13230396807193756,"805":0.15374888479709625,"806":0.008951939642429352,"807":-0.21967895328998566,"808":-0.21778617799282074,"809":-0.027054911479353905,"810":-0.04291090741753578,"811":-0.026124050840735435,"812":0.07854713499546051,"813":-0.3994084894657135,"814":0.00034394944668747485,"815":0.2938964068889618,"816":-0.06813333928585052,"817":0.06532979756593704,"818":0.003861295757815242,"819":-0.061908770352602005,"820":0.0031365463510155678,"821":-0.14253897964954376,"822":-0.019701002165675163,"823":-0.09677545726299286,"824":-0.2035052627325058,"825":-0.2558067739009857,"826":0.0700233206152916,"827":-0.27746039628982544,"828":0.18446402251720428,"829":-0.26066794991493225,"830":-0.09605959057807922,"831":-0.2622648775577545,"832":0.029870985075831413,"833":0.11336163431406021,"834":0.0360795222222805,"835":-0.07570531964302063,"836":-0.04227491468191147,"837":0.012269889004528522,"838":0.194284588098526,"839":0.3410165011882782,"840":-0.06710424274206161,"841":-0.0532401017844677,"842":-0.0850745290517807,"843":-0.08189740777015686,"844":-0.012667636387050152,"845":0.049420591443777084,"846":0.10709008574485779,"847":-0.044333457946777344,"848":0.1343870609998703,"849":-0.05931052193045616,"850":0.05457274988293648,"851":-0.21465474367141724,"852":-0.1272244155406952,"853":0.059810083359479904,"854":-0.047043394297361374,"855":-0.14394891262054443,"856":0.20252996683120728,"857":0.0558091439306736,"858":-0.08051759004592896,"859":0.005879622418433428,"860":-0.04138828068971634,"861":0.05206179618835449,"862":-0.11189030110836029,"863":0.09122750163078308,"864":-0.28579941391944885,"865":0.09116626530885696,"866":0.2843734622001648,"867":0.3448421359062195,"868":0.011125619523227215,"869":-0.14599841833114624,"870":0.2124684602022171,"871":-0.11134976893663406,"872":0.05826935917139053,"873":-0.06863176822662354,"874":-0.08491139858961105,"875":0.11172828078269958,"876":-0.1075885146856308,"877":-0.20006637275218964,"878":-0.14441300928592682,"879":0.13784809410572052,"880":0.23499473929405212,"881":-0.03517458960413933,"882":0.19553101062774658,"883":0.025695763528347015,"884":-0.028142932802438736,"885":-0.042532604187726974,"886":0.028575023636221886,"887":0.35417440533638,"888":-0.19531255960464478,"889":0.22976095974445343,"890":-0.10901375859975815,"891":-0.0459885336458683,"892":0.0423370786011219,"893":-0.15194329619407654,"894":-0.15182887017726898,"895":0.14495407044887543,"896":-0.10725683718919754,"897":0.08905714005231857,"898":-0.0009456415427848697,"899":-0.08155841380357742,"900":0.05581529438495636,"901":0.17556308209896088,"902":-0.07563785463571548,"903":-0.0014884427655488253,"904":-0.01810511201620102,"905":0.02873983420431614,"906":0.029405295848846436,"907":-0.1237165704369545,"908":0.10193198174238205,"909":0.05414343625307083,"910":-0.09643173962831497,"911":-0.02590426616370678,"912":0.09327800571918488,"913":-0.027036437764763832,"914":0.04679432883858681,"915":-0.05221820995211601,"916":-0.01393810659646988,"917":-0.020372087135910988,"918":0.0710783451795578,"919":-0.23072439432144165,"920":-0.02455967850983143,"921":-0.04805821552872658,"922":0.09483851492404938,"923":-0.023407476022839546,"924":-0.13687996566295624,"925":-0.005034665577113628,"926":-0.08067763596773148,"927":0.007585201412439346,"928":0.13261191546916962,"929":-0.018641021102666855,"930":-0.08089661598205566,"931":-0.14097048342227936,"932":-0.014047698117792606,"933":0.21985696256160736,"934":-0.019399581477046013,"935":-0.0011500809341669083,"936":-0.07466022670269012,"937":0.1251436471939087,"938":-0.11142632365226746,"939":-0.040940552949905396,"940":0.17407885193824768,"941":-0.011341594159603119,"942":0.04033621773123741,"943":0.13623759150505066,"944":-0.07143021374940872,"945":0.044105540961027145,"946":0.05366240441799164,"947":0.08577022701501846,"948":-0.061743441969156265,"949":-0.001450205803848803,"950":0.009135229513049126,"951":0.011550195515155792,"952":0.14859122037887573,"953":-0.1272834986448288,"954":0.1764056533575058,"955":0.017561238259077072,"956":-0.058856990188360214,"957":0.05635204166173935,"958":-0.00694932509213686,"959":-0.04115252196788788,"960":0.02963874116539955,"961":0.09050001949071884,"962":-0.008717019110918045,"963":-0.015523389913141727,"964":-0.11908926069736481,"965":0.1731506586074829,"966":-0.07498737424612045,"967":-0.04834264889359474,"968":-0.07126889377832413,"969":-0.027813352644443512,"970":0.0033523363526910543,"971":-0.02158922143280506,"972":0.12974894046783447,"973":-0.01733936369419098,"974":-0.007326115854084492,"975":0.015319754369556904,"976":-0.013482472859323025,"977":-0.11324761807918549,"978":0.08841750770807266,"979":0.1393926441669464,"980":-0.08648999780416489,"981":0.01931031607091427,"982":-0.0746801421046257,"983":-0.12441643327474594,"984":0.09043888747692108,"985":-0.15009646117687225,"986":-0.08669734746217728,"987":-0.028547178953886032,"988":-0.043209608644247055,"989":0.1115981936454773,"990":-0.0778544545173645,"991":-0.1936866044998169,"992":-0.02894938737154007,"993":0.12706612050533295,"994":-0.052942074835300446,"995":0.04025179520249367,"996":-0.09433995932340622,"997":0.13104188442230225,"998":-0.037939127534627914,"999":0.061150193214416504,"1000":0.02164195477962494,"1001":-0.07041989266872406,"1002":-0.051622867584228516,"1003":-0.15973584353923798,"1004":-0.018598008900880814,"1005":0.0829683244228363,"1006":-0.1414428949356079,"1007":-0.0013813270488753915,"1008":0.04599549248814583,"1009":-0.006037987768650055,"1010":0.010717506520450115,"1011":0.12268110364675522,"1012":0.017492501065135002,"1013":-0.01802295260131359,"1014":0.0005668105441145599,"1015":-0.22444774210453033,"1016":0.10656782239675522,"1017":-0.07835572212934494,"1018":0.04068657383322716,"1019":0.030890606343746185,"1020":-0.02347668819129467,"1021":-0.016365209594368935,"1022":-0.15478955209255219,"1023":-0.07503335177898407,"1024":-0.0904182568192482,"1025":-0.006063324864953756,"1026":-0.05181637778878212,"1027":-0.15382148325443268,"1028":-0.12744548916816711,"1029":0.19606296718120575,"1030":0.12464617937803268,"1031":0.2457280308008194,"1032":-0.05504874512553215,"1033":-0.15469752252101898,"1034":-0.025873973965644836,"1035":-0.13149189949035645,"1036":-0.1144041195511818,"1037":0.068382129073143,"1038":0.03454342111945152,"1039":0.1157035380601883,"1040":0.12273012846708298,"1041":0.07950642704963684,"1042":0.026237566024065018,"1043":-0.19799233973026276,"1044":-0.14424706995487213,"1045":-0.0294951181858778,"1046":0.10985376685857773,"1047":-0.037111327052116394,"1048":-0.006604492198675871,"1049":-0.01849539577960968,"1050":-0.045362669974565506,"1051":0.24556702375411987,"1052":-0.18111570179462433,"1053":0.11089977622032166,"1054":-0.09562299400568008,"1055":-0.08618022501468658,"1056":0.10963861644268036,"1057":0.04407313093543053,"1058":-0.26336243748664856,"1059":-0.008599353954195976,"1060":-0.10116689652204514,"1061":0.052420757710933685,"1062":0.02050611563026905,"1063":-0.05302881821990013,"1064":0.04854923114180565,"1065":-0.02285352721810341,"1066":0.06561188399791718,"1067":-0.07038073986768723,"1068":0.11463107168674469,"1069":-0.028066793456673622,"1070":-0.15567369759082794,"1071":0.011692455969750881,"1072":0.01845589280128479,"1073":-0.04640694335103035,"1074":-0.003806483466178179,"1075":0.12531693279743195,"1076":0.1394038051366806,"1077":-0.20659002661705017,"1078":0.13109171390533447,"1079":-0.21100938320159912,"1080":-0.05750901624560356,"1081":0.06549866497516632,"1082":-0.13311068713665009,"1083":-0.04355006664991379,"1084":0.04092935845255852,"1085":-0.020164193585515022,"1086":0.16251932084560394,"1087":0.11317969113588333,"1088":-0.0064544836059212685,"1089":0.1417301595211029,"1090":-0.0713992714881897,"1091":0.03725382685661316,"1092":-0.10791552066802979,"1093":-0.030856555327773094,"1094":0.04039333760738373,"1095":-0.03785685822367668,"1096":0.08446779102087021,"1097":0.027177847921848297,"1098":-0.02552133798599243,"1099":-0.05256994068622589,"1100":0.13324546813964844,"1101":0.1509905308485031,"1102":-0.23933300375938416,"1103":0.1206282377243042,"1104":0.14908133447170258,"1105":-0.067217618227005,"1106":0.02526651881635189,"1107":-0.005673428997397423,"1108":0.06792786717414856,"1109":-0.09949152916669846,"1110":-0.007344309706240892,"1111":-0.15862546861171722,"1112":0.06908638775348663,"1113":0.16593152284622192,"1114":-0.07430703938007355,"1115":-0.021400293335318565,"1116":0.023540901020169258,"1117":0.04927189648151398,"1118":-0.052459072321653366,"1119":0.12506309151649475,"1120":0.02957949787378311,"1121":0.12778720259666443,"1122":-0.14710648357868195,"1123":0.11277544498443604,"1124":-0.1400114744901657,"1125":-0.017086932435631752,"1126":0.016039717942476273,"1127":0.05316584184765816,"1128":0.0631246268749237,"1129":0.11965800076723099,"1130":-0.10858755558729172,"1131":0.056420836597681046,"1132":0.14952817559242249,"1133":0.00030612043337896466,"1134":-0.17882055044174194,"1135":0.12857003509998322,"1136":0.01274263858795166,"1137":-0.08077763766050339,"1138":0.1476261168718338,"1139":-0.0034147948026657104,"1140":0.09815298020839691,"1141":-0.049396418035030365,"1142":0.059942636638879776,"1143":-0.19041001796722412,"1144":0.033995550125837326,"1145":0.056942664086818695,"1146":0.06707387417554855,"1147":0.01535184308886528,"1148":-0.06623204797506332,"1149":-0.014807667583227158,"1150":0.033496253192424774,"1151":-0.09689830988645554,"1152":0.09519384801387787,"1153":0.1634635627269745,"1154":-0.1171816736459732,"1155":0.1267952173948288,"1156":-0.11952243745326996,"1157":-0.05024273693561554,"1158":0.18108488619327545,"1159":0.061580754816532135,"1160":0.016137514263391495,"1161":-0.03363637253642082,"1162":-0.10280490666627884,"1163":-0.1662202626466751,"1164":-0.029006898403167725,"1165":0.1488494873046875,"1166":-0.13694322109222412,"1167":0.07379530370235443,"1168":0.14833493530750275,"1169":-0.0375705361366272,"1170":-0.05074228718876839,"1171":-0.034466035664081573,"1172":0.14076898992061615,"1173":0.04946403577923775,"1174":0.13198383152484894,"1175":-0.10219786316156387,"1176":0.05613221600651741,"1177":0.014745961874723434,"1178":0.0051610032096505165,"1179":0.09807921946048737,"1180":0.015302344225347042,"1181":0.0269027017056942,"1182":0.010344422422349453,"1183":0.16788345575332642,"1184":-0.045215900987386703,"1185":-0.08990303426980972,"1186":-0.04265449941158295,"1187":-0.0559544712305069,"1188":0.017158210277557373,"1189":0.21550965309143066,"1190":0.022725949063897133,"1191":-0.07574274390935898,"1192":-0.14470569789409637,"1193":-0.12242589890956879,"1194":-0.10260118544101715,"1195":-0.07772689312696457,"1196":0.016392819583415985,"1197":0.1274043321609497,"1198":0.05471736565232277,"1199":-0.09530291706323624,"1200":0.0114661306142807,"1201":-0.020205475389957428,"1202":-0.030725564807653427,"1203":0.05474570393562317,"1204":0.0310061015188694,"1205":-0.00043232308235019445,"1206":0.08002422004938126,"1207":-0.038143642246723175,"1208":0.17265695333480835,"1209":-0.10986831784248352,"1210":0.07143066823482513,"1211":0.12416839599609375,"1212":-0.23449452221393585,"1213":0.13307224214076996,"1214":-0.07183579355478287,"1215":-0.042666587978601456,"1216":0.15357041358947754,"1217":0.09824238717556,"1218":-0.2299247533082962,"1219":-0.05448642373085022,"1220":0.012240149080753326,"1221":-0.18393360078334808,"1222":0.15499956905841827,"1223":0.16087879240512848,"1224":0.22370588779449463,"1225":0.0029296460561454296,"1226":0.043809838593006134,"1227":0.12057413905858994,"1228":-0.19620229303836823,"1229":0.0004938308265991509,"1230":-0.11038027703762054,"1231":-0.07986960560083389,"1232":-0.11293989419937134,"1233":-0.01142776571214199,"1234":-0.024855365976691246,"1235":-0.2927236258983612,"1236":0.1233411580324173,"1237":-0.0928322821855545,"1238":-0.09168534725904465,"1239":-0.024646079167723656,"1240":-0.12370938062667847,"1241":0.01194650586694479,"1242":-0.06573154032230377,"1243":0.13912537693977356,"1244":0.11688301712274551,"1245":0.0648985207080841,"1246":0.24820071458816528,"1247":0.3515613377094269,"1248":0.08524571359157562,"1249":0.18755042552947998,"1250":-0.21531043946743011,"1251":0.02065347135066986,"1252":-0.11597022414207458,"1253":0.10862575471401215,"1254":0.0646115392446518,"1255":-0.09966056048870087,"1256":0.019820231944322586,"1257":-0.08568482846021652,"1258":-0.13950085639953613,"1259":0.0056366706266999245,"1260":0.05238169804215431,"1261":0.04277901351451874,"1262":-0.01673302799463272,"1263":0.12889233231544495,"1264":0.06326376646757126,"1265":-0.01613474264740944,"1266":0.07147078961133957,"1267":0.1059943214058876,"1268":0.029552189633250237,"1269":-0.0020230018999427557,"1270":0.007524039130657911,"1271":-0.24174651503562927,"1272":0.027979696169495583,"1273":0.06659041345119476,"1274":0.02067294344305992,"1275":0.008240007795393467,"1276":0.002348835114389658,"1277":0.05306879058480263,"1278":-0.08370465040206909,"1279":0.0128928879275918,"1280":0.14294447004795074,"1281":0.058437347412109375,"1282":-0.2748793363571167,"1283":-0.2000199258327484,"1284":-0.0912865400314331,"1285":0.11834435164928436,"1286":0.04598670080304146,"1287":0.019941139966249466,"1288":0.025585036724805832,"1289":-0.023468980565667152,"1290":-0.03491853177547455,"1291":-0.20100130140781403,"1292":0.06034070998430252,"1293":0.04086284711956978,"1294":0.015188300050795078,"1295":0.09381727129220963,"1296":0.12047657370567322,"1297":0.0715479701757431,"1298":-0.013387837447226048,"1299":0.12318246811628342,"1300":0.031118987128138542,"1301":-0.07278952747583389,"1302":0.056633856147527695,"1303":-0.18276230990886688,"1304":0.03323087841272354,"1305":0.049040090292692184,"1306":-0.1375967115163803,"1307":0.1189567968249321,"1308":-0.072348952293396,"1309":0.07585037499666214,"1310":0.057027868926525116,"1311":-0.055903878062963486,"1312":-0.35313451290130615,"1313":0.09874053299427032,"1314":0.05872697755694389,"1315":-0.14594624936580658,"1316":-0.1893092691898346,"1317":0.10123183578252792,"1318":0.17844244837760925,"1319":0.11649742722511292,"1320":-0.13126914203166962,"1321":-0.09524042904376984,"1322":-0.04858316853642464,"1323":-0.0966293066740036,"1324":-0.1712777465581894,"1325":-0.14090602099895477,"1326":0.15045273303985596,"1327":0.18550023436546326,"1328":0.034836262464523315,"1329":-0.0012473794631659985,"1330":0.10735877603292465,"1331":-0.08889134228229523,"1332":-0.15269868075847626,"1333":-0.1659553349018097,"1334":-0.0034036000724881887,"1335":0.13268594443798065,"1336":-0.31442660093307495,"1337":-0.12680082023143768,"1338":-0.05684715509414673,"1339":0.21643953025341034,"1340":-0.09947430342435837,"1341":-0.05357922241091728,"1342":-0.20064200460910797,"1343":-0.24209527671337128,"1344":0.1694801300764084,"1345":0.016556572169065475,"1346":-0.03174818307161331,"1347":-0.10225077718496323,"1348":0.035811230540275574,"1349":-0.07224222272634506,"1350":0.06736985594034195,"1351":0.022800549864768982,"1352":-0.097395159304142,"1353":-0.14475281536579132,"1354":0.1329224854707718,"1355":-0.05108589306473732,"1356":-0.04543570429086685,"1357":0.04549816995859146,"1358":-0.13640569150447845,"1359":-0.06422653049230576,"1360":-0.044835660606622696,"1361":-0.09771823137998581,"1362":-0.11131580173969269,"1363":-0.24807682633399963,"1364":0.2232728898525238,"1365":-0.06473469734191895,"1366":-0.04958293214440346,"1367":-0.03051544912159443,"1368":-0.09964607656002045,"1369":-0.1646692156791687,"1370":-0.1462411731481552,"1371":0.018156850710511208,"1372":-0.05089867487549782,"1373":-0.023464052006602287,"1374":0.2639484107494354,"1375":-0.0038007828406989574,"1376":-0.21840591728687286,"1377":0.2366759032011032,"1378":0.1444171816110611,"1379":0.2468712478876114,"1380":-0.16520282626152039,"1381":-0.16121582686901093,"1382":0.2829452157020569,"1383":-0.019759371876716614,"1384":0.04769168421626091,"1385":0.22295548021793365,"1386":-0.23886601626873016,"1387":0.21469563245773315,"1388":0.17785614728927612,"1389":-0.23946984112262726,"1390":-0.0200105719268322,"1391":0.30277377367019653,"1392":0.05879170820116997,"1393":-0.013147391378879547,"1394":0.40046703815460205,"1395":0.028551653027534485,"1396":-0.04293476417660713,"1397":-0.13807089626789093,"1398":0.1071682870388031,"1399":0.07928624004125595,"1400":-0.16465826332569122,"1401":0.025361966341733932,"1402":0.10860516875982285,"1403":-0.01991792395710945,"1404":0.2113405466079712,"1405":-0.07230925559997559,"1406":0.07130756974220276,"1407":0.17476406693458557,"1408":0.030393365770578384,"1409":0.03668759763240814,"1410":-0.035461027175188065,"1411":-0.09035304188728333,"1412":-0.1349465399980545,"1413":0.1306735873222351,"1414":0.1333920806646347,"1415":0.04992886260151863,"1416":-0.010102304629981518,"1417":0.004364425782114267,"1418":-0.01009515393525362,"1419":-0.10591945797204971,"1420":0.07142277806997299,"1421":0.0680544450879097,"1422":-0.05226581171154976,"1423":0.0223782230168581,"1424":0.19519422948360443,"1425":0.028929676860570908,"1426":0.07589530199766159,"1427":0.11419940739870071,"1428":0.11860784888267517,"1429":0.013670298270881176,"1430":0.01620282232761383,"1431":-0.1876782476902008,"1432":0.10238945484161377,"1433":0.01134069636464119,"1434":-0.040998198091983795,"1435":0.005820863880217075,"1436":-0.10686150938272476,"1437":0.1385418176651001,"1438":-0.023393044248223305,"1439":-0.05042966082692146,"1440":0.20518679916858673,"1441":-0.04788646847009659,"1442":-0.14737780392169952,"1443":-0.1447579711675644,"1444":-0.12887045741081238,"1445":0.0629853904247284,"1446":-0.08375507593154907,"1447":0.1532636135816574,"1448":-0.059258755296468735,"1449":-0.13566391170024872,"1450":-0.021922823041677475,"1451":0.050342097878456116,"1452":0.15125015377998352,"1453":-0.03272681310772896,"1454":0.07301881909370422,"1455":-0.07493648678064346,"1456":-0.1233883649110794,"1457":-0.02210334688425064,"1458":0.03707592561841011,"1459":0.10284430533647537,"1460":0.10695387423038483,"1461":-0.20709839463233948,"1462":0.11155690997838974,"1463":-0.05804530158638954,"1464":-0.14392490684986115,"1465":-0.11658353358507156,"1466":0.010288544930517673,"1467":0.05189128592610359,"1468":-0.16721463203430176,"1469":-0.10360395163297653,"1470":0.035301320254802704,"1471":-0.1168290376663208,"1472":-0.027224145829677582,"1473":-0.001813674345612526,"1474":-0.18785840272903442,"1475":-0.10678012669086456,"1476":-0.1038467288017273,"1477":0.16669726371765137,"1478":0.12811587750911713,"1479":-0.007448140531778336,"1480":-0.026751622557640076,"1481":0.07498915493488312,"1482":-0.0647355243563652,"1483":-0.15479518473148346,"1484":0.04839284345507622,"1485":0.0712319016456604,"1486":0.012240834534168243,"1487":0.09352975338697433,"1488":-0.020187607035040855,"1489":-0.037115808576345444,"1490":0.09682775288820267,"1491":0.06914440542459488,"1492":0.05076783522963524,"1493":-0.1342994123697281,"1494":0.028814489021897316,"1495":-0.13588589429855347,"1496":0.1266438066959381,"1497":-0.03386592119932175,"1498":-0.0934707447886467,"1499":-0.028815465047955513,"1500":-0.003586406819522381,"1501":0.0896327942609787,"1502":0.1023046150803566,"1503":-0.05144203454256058,"1504":0.14538614451885223,"1505":0.08097149431705475,"1506":-0.12033533304929733,"1507":-0.13586625456809998,"1508":-0.07849418371915817,"1509":0.09675145894289017,"1510":-0.01756587252020836,"1511":0.0220965389162302,"1512":0.16383619606494904,"1513":-0.04969744011759758,"1514":-0.19413530826568604,"1515":-0.09077832102775574,"1516":0.05450543761253357,"1517":0.08835135400295258,"1518":-0.21952317655086517,"1519":-0.014778251759707928,"1520":0.041315946727991104,"1521":-0.0489313080906868,"1522":0.07355596870183945,"1523":-0.011508401483297348,"1524":0.1805592030286789,"1525":0.007992212660610676,"1526":0.11956391483545303,"1527":-0.07444882392883301,"1528":0.0648069977760315,"1529":0.0886618122458458,"1530":-0.05234428867697716,"1531":-0.11106136441230774,"1532":-0.03416736051440239,"1533":-0.007554937154054642,"1534":0.052634794265031815,"1535":-0.017492327839136124,"1536":-0.02638227306306362,"1537":0.11345010995864868,"1538":0.011484435759484768,"1539":0.11876285821199417,"1540":-0.13784295320510864,"1541":0.10766620188951492,"1542":0.09147217124700546,"1543":-0.13049669563770294,"1544":0.02684350311756134,"1545":-0.09047415852546692,"1546":0.09958156943321228,"1547":-0.09140042960643768,"1548":0.14093837141990662,"1549":-0.16226030886173248,"1550":-0.12390123307704926,"1551":0.05002249777317047,"1552":0.10514991730451584,"1553":-0.03616230934858322,"1554":0.06540948152542114,"1555":0.06324607878923416,"1556":0.031125815585255623,"1557":-0.25094518065452576,"1558":-0.09742192924022675,"1559":0.16805493831634521,"1560":-0.2579701840877533,"1561":0.08911268413066864,"1562":-0.06511900573968887,"1563":-0.08867456763982773,"1564":-0.2433483898639679,"1565":-0.054646894335746765,"1566":0.08533105254173279,"1567":-0.09215664118528366,"1568":-0.05700942501425743,"1569":-0.10818500816822052,"1570":0.015396114438772202,"1571":0.05530848354101181,"1572":0.11174444854259491,"1573":-0.0021926769986748695,"1574":-0.1017347201704979,"1575":-0.06219707056879997,"1576":0.1480587273836136,"1577":-0.012602007947862148,"1578":0.16120858490467072,"1579":-0.03433101996779442,"1580":-0.12579002976417542,"1581":0.03480970114469528,"1582":0.049063701182603836,"1583":-0.12494014948606491,"1584":0.10911831259727478,"1585":-0.09060344099998474,"1586":0.06684322655200958,"1587":0.029714461416006088,"1588":-0.1144702360033989,"1589":-0.07228720933198929,"1590":0.02083519659936428,"1591":0.08711496740579605,"1592":-0.0555032417178154,"1593":0.0803677886724472,"1594":-0.09642698615789413,"1595":0.0016451654955744743,"1596":-0.006470903754234314,"1597":0.00047155999345704913,"1598":-0.14340199530124664,"1599":0.08065018057823181,"1600":-0.017354754731059074,"1601":-0.10347539931535721,"1602":-0.09793606400489807,"1603":-0.00358363869599998,"1604":0.25606152415275574,"1605":-0.006883738562464714,"1606":0.1324029266834259,"1607":-0.010481132194399834,"1608":-0.011510527692735195,"1609":0.11103534698486328,"1610":0.061440080404281616,"1611":0.12016085535287857,"1612":-0.02376016601920128,"1613":0.03623605892062187,"1614":0.031109612435102463,"1615":-0.06884146481752396,"1616":0.14222785830497742,"1617":0.05926593020558357,"1618":-0.1476527899503708,"1619":-0.13371270895004272,"1620":-0.05808870121836662,"1621":-0.007464076858013868,"1622":0.11055886000394821,"1623":0.16523554921150208,"1624":-0.23416706919670105,"1625":0.08554288744926453,"1626":-0.04864770919084549,"1627":-0.014625245705246925,"1628":0.08006082475185394,"1629":0.11676833778619766,"1630":-0.09129516035318375,"1631":0.04615074396133423,"1632":-0.16809430718421936,"1633":-0.07445234060287476,"1634":0.01570770889520645,"1635":0.09160725027322769,"1636":0.07678718119859695,"1637":0.00745118223130703,"1638":0.11702604591846466,"1639":0.10447221249341965,"1640":0.09005577117204666,"1641":-0.07345283776521683,"1642":0.15789087116718292,"1643":0.12236647307872772,"1644":-0.15065374970436096,"1645":0.06831585615873337,"1646":0.09173666685819626,"1647":-0.047597456723451614,"1648":0.025826014578342438,"1649":-0.043016791343688965,"1650":-0.05428971350193024,"1651":-0.12947063148021698,"1652":-0.12879155576229095,"1653":-0.07499338686466217,"1654":-0.06550547480583191,"1655":0.15372483432292938,"1656":0.024531438946723938,"1657":0.03241104260087013,"1658":-0.16270411014556885,"1659":0.02737986482679844,"1660":-0.08258078992366791,"1661":0.0813840925693512,"1662":-0.0013221106491982937,"1663":0.03482266515493393,"1664":-0.014069943688809872,"1665":-0.29538586735725403,"1666":0.12302723526954651,"1667":-0.001446899026632309,"1668":0.009469084441661835,"1669":0.06338832527399063,"1670":0.050775572657585144,"1671":0.07066580653190613,"1672":-0.02139231190085411,"1673":-0.030541209504008293,"1674":0.08966328203678131,"1675":-0.09210380911827087,"1676":-0.02719857543706894,"1677":-0.09337878227233887,"1678":-0.0012785824947059155,"1679":-0.06305799633264542,"1680":0.22697627544403076,"1681":0.008404766209423542,"1682":-0.11946259438991547,"1683":0.02149488404393196,"1684":-0.16098237037658691,"1685":-0.10435356944799423,"1686":0.026494035497307777,"1687":0.025044135749340057,"1688":-0.07380248606204987,"1689":0.12148026376962662,"1690":-0.03635162115097046,"1691":-0.04735894501209259,"1692":0.04670397937297821,"1693":0.06102719530463219,"1694":-0.17981721460819244,"1695":0.12221195548772812,"1696":-0.029394477605819702,"1697":-0.1674455851316452,"1698":-0.1302325427532196,"1699":-0.21985206007957458,"1700":0.13951171934604645,"1701":0.0750344917178154,"1702":0.06737088412046432,"1703":0.10776246339082718,"1704":-0.09569231420755386,"1705":0.10630397498607635,"1706":0.13318698108196259,"1707":0.04287081956863403,"1708":-0.021352460607886314,"1709":-0.12553060054779053,"1710":0.04516586288809776,"1711":-0.04402323067188263,"1712":0.15746119618415833,"1713":-0.06666384637355804,"1714":-0.05412517115473747,"1715":0.09866830706596375,"1716":-0.07623758912086487,"1717":-0.17059992253780365,"1718":0.16398602724075317,"1719":0.015152773819863796,"1720":-0.2794745862483978,"1721":0.1371506303548813,"1722":-0.13325823843479156,"1723":0.028530225157737732,"1724":-0.19661906361579895,"1725":-0.06474822014570236,"1726":-0.1685800999403,"1727":-0.19545386731624603,"1728":-0.021128809079527855,"1729":-0.09559698402881622,"1730":0.00039006792940199375,"1731":-0.09666547179222107,"1732":0.06229100748896599,"1733":-0.2843073606491089,"1734":-0.1143217533826828,"1735":0.06002435088157654,"1736":-0.07897933572530746,"1737":-0.13394375145435333,"1738":-0.040978945791721344,"1739":-0.2700413465499878,"1740":-0.13593077659606934,"1741":0.08454042673110962,"1742":0.034033335745334625,"1743":0.004470920655876398,"1744":0.0692225843667984,"1745":0.0796661451458931,"1746":-0.2361084371805191,"1747":-0.21227441728115082,"1748":-0.06491874158382416,"1749":0.010045659728348255,"1750":-0.2691960334777832,"1751":-0.11673765629529953,"1752":0.005636187270283699,"1753":0.0589669831097126,"1754":0.1577601134777069,"1755":0.002951451577246189,"1756":0.13284696638584137,"1757":0.02333313599228859,"1758":-0.10075061768293381,"1759":0.10616588592529297,"1760":-0.03841889277100563,"1761":-0.2546898424625397,"1762":0.015606086701154709,"1763":0.08597379177808762,"1764":0.011778945103287697,"1765":0.0029438924975693226,"1766":0.15806512534618378,"1767":0.07714515179395676,"1768":0.026446424424648285,"1769":0.03688360005617142,"1770":0.03973755985498428,"1771":0.14538122713565826,"1772":-0.0313231535255909,"1773":-0.014615589752793312,"1774":0.012690921314060688,"1775":-0.12727630138397217,"1776":0.1826086789369583,"1777":0.05310589820146561,"1778":-0.004668375011533499,"1779":-0.03659125417470932,"1780":-0.08388450741767883,"1781":-0.05123180150985718,"1782":0.12094869464635849,"1783":0.12785330414772034,"1784":-0.09301415830850601,"1785":0.07855873554944992,"1786":-0.17932523787021637,"1787":-0.08463024348020554,"1788":-0.12431959062814713,"1789":0.0943378433585167,"1790":-0.09536315500736237,"1791":0.034057922661304474,"1792":-0.1947312355041504,"1793":-0.12433099746704102,"1794":0.17719952762126923,"1795":0.13955700397491455,"1796":0.1850554496049881,"1797":-0.05019805207848549,"1798":0.025037182494997978,"1799":0.05064582824707031,"1800":0.0761200338602066,"1801":-0.030455486848950386,"1802":0.08576732128858566,"1803":0.12334194779396057,"1804":0.0062567912973463535,"1805":0.12497054040431976,"1806":-0.0959799736738205,"1807":-0.04523308947682381,"1808":0.024442454800009727,"1809":0.08457546681165695,"1810":-0.07201452553272247,"1811":-0.09665604680776596,"1812":-0.2303110510110855,"1813":-0.06154165789484978,"1814":0.005841769743710756,"1815":0.12320370972156525,"1816":0.025478549301624298,"1817":0.15671496093273163,"1818":-0.15881477296352386,"1819":-0.03959951922297478,"1820":-0.09230195730924606,"1821":-0.05932696536183357,"1822":0.06526133418083191,"1823":-0.02138892561197281,"1824":-0.03091772273182869,"1825":0.04832936078310013,"1826":0.09966685622930527,"1827":0.17726615071296692,"1828":-0.2492881864309311,"1829":0.2603222131729126,"1830":0.023480063304305077,"1831":-0.21349962055683136,"1832":-0.15990397334098816,"1833":-0.06208636984229088,"1834":-0.08347232639789581,"1835":0.07651124894618988,"1836":-0.03050786256790161,"1837":-0.21950779855251312,"1838":-0.12158096581697464,"1839":0.07687623053789139,"1840":0.07414411008358002,"1841":-0.025538641959428787,"1842":0.19691075384616852,"1843":0.07939834147691727,"1844":-0.022569341585040092,"1845":-0.23916980624198914,"1846":-0.07386773824691772,"1847":0.15016035735607147,"1848":-0.15755771100521088,"1849":0.11393798142671585,"1850":-0.046325620263814926,"1851":-0.2252424955368042,"1852":-0.16191978752613068,"1853":-0.2905271649360657,"1854":0.04667218029499054,"1855":-0.07618176937103271,"1856":-0.10197046399116516,"1857":0.03331468254327774,"1858":0.006760907359421253,"1859":-0.09154646843671799,"1860":0.2394219934940338,"1861":-0.09617692232131958,"1862":0.12543489038944244,"1863":0.21506445109844208,"1864":-0.09677550941705704,"1865":0.028502654284238815,"1866":0.02802562713623047,"1867":-0.003869060194119811,"1868":-0.08151398599147797,"1869":-0.11369969695806503,"1870":0.02682585082948208,"1871":-0.05522254481911659,"1872":0.10019584000110626,"1873":-0.044707536697387695,"1874":-0.07397184520959854,"1875":-0.0648413673043251,"1876":-0.14384567737579346,"1877":0.04014831408858299,"1878":-0.1294572502374649,"1879":-0.21064156293869019,"1880":0.11393499374389648,"1881":-0.00509830703958869,"1882":0.015210994519293308,"1883":0.19665202498435974,"1884":0.11422225087881088,"1885":0.1356300413608551,"1886":-0.06481868773698807,"1887":0.06036386266350746,"1888":-0.20475926995277405,"1889":-0.22986187040805817,"1890":-0.12467147409915924,"1891":-0.01268689427524805,"1892":-0.13729949295520782,"1893":-0.2839787006378174,"1894":0.04431906342506409,"1895":-0.16022424399852753,"1896":0.04107034206390381,"1897":-0.07666481286287308,"1898":-0.05673396959900856,"1899":0.21354073286056519,"1900":-0.1139683797955513,"1901":-0.2704155743122101,"1902":0.037508029490709305,"1903":-0.12778383493423462,"1904":0.07356695830821991,"1905":-0.1070568859577179,"1906":-0.013606353662908077,"1907":-0.19164890050888062,"1908":0.1076708436012268,"1909":-0.054202545434236526,"1910":-0.11791948974132538,"1911":0.1524578332901001,"1912":-0.2878172993659973,"1913":-0.09369862079620361,"1914":0.16079284250736237,"1915":-0.10890999436378479,"1916":0.13005316257476807,"1917":-0.4435894191265106,"1918":-0.07670502364635468,"1919":-0.0819183960556984,"1920":-0.05327203497290611,"1921":-0.10191957652568817,"1922":-0.059804487973451614,"1923":-0.09014172852039337,"1924":0.1094731017947197,"1925":0.043148528784513474,"1926":-0.09047571569681168,"1927":-0.046917907893657684,"1928":0.011386387050151825,"1929":-0.019734451547265053,"1930":0.09024583548307419,"1931":-0.011482629925012589,"1932":0.00757543696090579,"1933":-0.07833386212587357,"1934":-0.031502317637205124,"1935":-0.11141115427017212,"1936":0.2039448320865631,"1937":-0.10626380890607834,"1938":-0.0893368273973465,"1939":-0.009759948588907719,"1940":-0.061001650989055634,"1941":-0.013402524404227734,"1942":0.11940830200910568,"1943":0.06075947731733322,"1944":-0.22489339113235474,"1945":0.07049676030874252,"1946":-0.06322814524173737,"1947":0.01705010049045086,"1948":-0.13495220243930817,"1949":0.011564338579773903,"1950":-0.04695817455649376,"1951":-0.09273455291986465,"1952":-0.07997099310159683,"1953":0.07576422393321991,"1954":0.26213955879211426,"1955":0.1178881898522377,"1956":0.0437038354575634,"1957":0.0861533060669899,"1958":-0.023870399221777916,"1959":0.08942963927984238,"1960":-0.06689058989286423,"1961":-0.08610368520021439,"1962":0.03585277497768402,"1963":0.1539478302001953,"1964":-0.13144369423389435,"1965":-0.06459734588861465,"1966":0.014768872410058975,"1967":0.052585966885089874,"1968":-0.015232481062412262,"1969":0.01478977408260107,"1970":0.009776465594768524,"1971":-0.09571918100118637,"1972":-0.08668933808803558,"1973":0.09516110271215439,"1974":-0.04578699916601181,"1975":0.039969608187675476,"1976":-0.0853625014424324,"1977":-0.05845833942294121,"1978":-0.15235084295272827,"1979":0.054632674902677536,"1980":-0.14013592898845673,"1981":-0.11155048757791519,"1982":-0.09717534482479095,"1983":-0.12416215986013412,"1984":-0.03592691943049431,"1985":-0.13897737860679626,"1986":0.010457966476678848,"1987":0.021936940029263496,"1988":0.14481936395168304,"1989":-0.040023207664489746,"1990":-0.047183673828840256,"1991":0.01684810407459736,"1992":0.04423169046640396,"1993":-0.0965048223733902,"1994":0.03813895955681801,"1995":0.12526585161685944,"1996":-0.07053378224372864,"1997":0.06756390631198883,"1998":0.008505458012223244,"1999":-0.02960350178182125,"2000":0.10127630084753036,"2001":0.019139887765049934,"2002":0.007135316729545593,"2003":0.03763823211193085,"2004":-0.2175963670015335,"2005":-0.013832543976604939,"2006":0.12141390144824982,"2007":0.07016381621360779,"2008":-0.008226296864449978,"2009":0.09957072883844376,"2010":-0.0928412675857544,"2011":0.01235408615320921,"2012":0.005618038587272167,"2013":-0.021200763061642647,"2014":-0.11735784262418747,"2015":-0.1302790492773056,"2016":-0.10545913875102997,"2017":-0.19381260871887207,"2018":-0.041422054171562195,"2019":0.049000319093465805,"2020":0.08070328086614609,"2021":0.08540511876344681,"2022":0.0398867204785347,"2023":0.023335309699177742,"2024":0.0071615735068917274,"2025":-0.11465665698051453,"2026":0.09186042100191116,"2027":-0.10766693949699402,"2028":-0.05864185839891434,"2029":0.045325275510549545,"2030":-0.0016267555765807629,"2031":-0.10873639583587646,"2032":0.034412723034620285,"2033":0.0314866341650486,"2034":0.05095450580120087,"2035":-0.03522379323840141,"2036":-0.0983671024441719,"2037":0.041811391711235046,"2038":0.0391891710460186,"2039":0.11135167628526688,"2040":-0.05888747423887253,"2041":0.0789671316742897,"2042":-0.04454135149717331,"2043":-0.052606191486120224,"2044":-0.012682733125984669,"2045":0.030577601864933968,"2046":-0.12611624598503113,"2047":0.02024102956056595,"2048":-0.3655444085597992,"2049":0.20140059292316437,"2050":-0.1591797173023224,"2051":-0.013325449079275131,"2052":-0.027049588039517403,"2053":0.0613943450152874,"2054":0.12478901445865631,"2055":-0.18770472705364227,"2056":0.017200849950313568,"2057":0.03737553954124451,"2058":-0.11965128034353256,"2059":0.06761661171913147,"2060":-0.07721726596355438,"2061":-0.23876890540122986,"2062":-0.006294837687164545,"2063":0.09333334863185883,"2064":0.11257974803447723,"2065":-0.07116362452507019,"2066":0.050794817507267,"2067":-0.11352426558732986,"2068":-0.17877984046936035,"2069":-0.021667150780558586,"2070":0.023683451116085052,"2071":-0.12059799581766129,"2072":-0.15104879438877106,"2073":0.01400450523942709,"2074":-0.11080726236104965,"2075":-0.06451927870512009,"2076":-0.055565547198057175,"2077":-0.0641956701874733,"2078":-0.18601006269454956,"2079":0.13370808959007263,"2080":0.11449083685874939,"2081":0.07948245853185654,"2082":0.13356126844882965,"2083":0.09523613005876541,"2084":-0.07632342725992203,"2085":-0.07816935330629349,"2086":0.07608840614557266,"2087":0.04180160537362099,"2088":-0.07665946334600449,"2089":0.03660503402352333,"2090":-0.02484113909304142,"2091":0.00794474221765995,"2092":-0.06991121172904968,"2093":-0.04064418748021126,"2094":-0.044680800288915634,"2095":0.0174251776188612,"2096":0.08442602306604385,"2097":0.01328769139945507,"2098":0.09084086865186691,"2099":0.042100757360458374,"2100":-0.025356177240610123,"2101":0.08506976813077927,"2102":-0.010715523734688759,"2103":0.1266840249300003,"2104":0.21141614019870758,"2105":0.06993541121482849,"2106":0.02436107210814953,"2107":-0.07801733911037445,"2108":0.05517042800784111,"2109":-0.050743281841278076,"2110":0.08361887186765671,"2111":-0.03615583851933479,"2112":-0.024280989542603493,"2113":0.01748720370233059,"2114":0.032481323927640915,"2115":0.010688881389796734,"2116":0.08689991384744644,"2117":0.014392463490366936,"2118":0.05319558456540108,"2119":0.1561002880334854,"2120":-0.045480601489543915,"2121":-0.05795154720544815,"2122":-0.026492323726415634,"2123":-0.005003457423299551,"2124":-0.10082496702671051,"2125":0.0003983021597377956,"2126":-0.07510525733232498,"2127":0.000797408982180059,"2128":0.031986039131879807,"2129":0.03244613856077194,"2130":-0.008291961625218391,"2131":0.009096614085137844,"2132":-0.17716474831104279,"2133":0.051833368837833405,"2134":0.030711518600583076,"2135":0.0008489235769957304,"2136":0.029937127605080605,"2137":-0.03615935519337654,"2138":0.11836084723472595,"2139":0.10490846633911133,"2140":0.03061417117714882,"2141":0.15437206625938416,"2142":0.022202299907803535,"2143":0.0023719007149338722,"2144":0.017871610820293427,"2145":-0.036275673657655716,"2146":0.24077695608139038,"2147":0.05625757575035095,"2148":0.015667978674173355,"2149":-0.11749346554279327,"2150":-0.006854493170976639,"2151":0.01682307943701744,"2152":0.12912602722644806,"2153":0.049618467688560486,"2154":0.047850631177425385,"2155":0.019835487008094788,"2156":-0.16070294380187988,"2157":0.005037720315158367,"2158":0.0078160110861063,"2159":0.005554758477956057,"2160":-0.06732183694839478,"2161":0.006336291786283255,"2162":-0.0005483112763613462,"2163":-0.08625372499227524,"2164":-0.12751413881778717,"2165":0.031503356993198395,"2166":-0.1237027645111084,"2167":0.08198133111000061,"2168":0.10493288934230804,"2169":0.004536905325949192,"2170":-0.06450582295656204,"2171":0.07977239787578583,"2172":0.07501297444105148,"2173":0.12666617333889008,"2174":0.031690046191215515,"2175":0.06428413093090057,"2176":0.09597893059253693,"2177":-0.020121963694691658,"2178":0.08094329386949539,"2179":0.038821056485176086,"2180":0.03430933505296707,"2181":-0.1015247255563736,"2182":-0.019935457035899162,"2183":-0.045248452574014664,"2184":0.08102130889892578,"2185":-0.07254692167043686,"2186":-0.016675764694809914,"2187":0.11938116699457169,"2188":-0.0456121526658535,"2189":0.014089709147810936,"2190":-0.02133954130113125,"2191":-0.04060410335659981,"2192":0.0012128270464017987,"2193":-0.08545004576444626,"2194":0.11869136244058609,"2195":0.060377635061740875,"2196":0.004774483386427164,"2197":-0.02599676139652729,"2198":-0.059524066746234894,"2199":0.08466208726167679,"2200":0.025637010112404823,"2201":0.057571325451135635,"2202":0.049965642392635345,"2203":-0.03386130556464195,"2204":0.09956447035074234,"2205":0.02325415425002575,"2206":0.013538152910768986,"2207":0.1649206578731537,"2208":-0.13959547877311707,"2209":-0.12571632862091064,"2210":0.06963835656642914,"2211":-0.03394845873117447,"2212":0.19494792819023132,"2213":0.10485216975212097,"2214":-0.03490271419286728,"2215":0.17482776939868927,"2216":-0.08012569695711136,"2217":-0.14571282267570496,"2218":0.14277799427509308,"2219":-0.02572072669863701,"2220":-0.0661393404006958,"2221":-0.0661880224943161,"2222":-0.006494593340903521,"2223":-0.013693677261471748,"2224":0.09516674280166626,"2225":0.002836556639522314,"2226":0.02080811746418476,"2227":-0.05003633722662926,"2228":-0.03307206928730011,"2229":-0.07767853885889053,"2230":-0.06460011005401611,"2231":-0.028711991384625435,"2232":0.018915792927145958,"2233":0.16022762656211853,"2234":-0.15519046783447266,"2235":0.004783048294484615,"2236":0.024352630600333214,"2237":0.17259161174297333,"2238":-0.08221101015806198,"2239":0.15328103303909302,"2240":0.04597373679280281,"2241":-0.14780977368354797,"2242":-0.23201130330562592,"2243":-0.1468764841556549,"2244":-0.26852384209632874,"2245":-0.03852725774049759,"2246":0.208832249045372,"2247":-0.22505499422550201,"2248":-0.04604588821530342,"2249":-0.015130816958844662,"2250":-0.0955233946442604,"2251":-0.050550781190395355,"2252":0.06209784373641014,"2253":-0.17557336390018463,"2254":0.10880276560783386,"2255":-0.11548222601413727,"2256":-0.1697406768798828,"2257":-0.03271837159991264,"2258":-0.11603527516126633,"2259":0.17424225807189941,"2260":0.09606008231639862,"2261":-0.08988825231790543,"2262":-0.1701163947582245,"2263":-0.1385691612958908,"2264":0.14320358633995056,"2265":-0.21334807574748993,"2266":0.1794779896736145,"2267":-0.18847137689590454,"2268":0.06841851770877838,"2269":-0.01150897890329361,"2270":0.07177180051803589,"2271":0.13841892778873444,"2272":-0.07426970452070236,"2273":0.015613281168043613,"2274":0.1701364666223526,"2275":0.09140575677156448,"2276":0.12402484565973282,"2277":-0.034069012850522995,"2278":-0.04674629122018814,"2279":0.011180244386196136,"2280":0.14433103799819946,"2281":-0.06258860975503922,"2282":0.0036626625806093216,"2283":0.14596585929393768,"2284":-0.1659950464963913,"2285":-0.04356459528207779,"2286":-0.024812642484903336,"2287":-0.016413792967796326,"2288":0.0004821334732696414,"2289":0.035690609365701675,"2290":0.0971624106168747,"2291":-0.012816482223570347,"2292":-0.025887276977300644,"2293":-0.06033380702137947,"2294":-0.03223623335361481,"2295":-0.001333656720817089,"2296":0.037795547395944595,"2297":0.06579633057117462,"2298":0.0030736324843019247,"2299":-0.002227596938610077,"2300":-0.10929159075021744,"2301":0.0019862938206642866,"2302":-0.025542763993144035,"2303":0.15543590486049652,"2304":0.013690324500203133,"2305":0.1335173100233078,"2306":0.13183416426181793,"2307":0.10397766530513763,"2308":0.06431932747364044,"2309":0.029754500836133957,"2310":0.0021936516277492046,"2311":-0.16537179052829742,"2312":0.020340552553534508,"2313":-0.04005328193306923,"2314":0.059064704924821854,"2315":0.012746710330247879,"2316":-0.0830758810043335,"2317":0.0711221918463707,"2318":-0.15654997527599335,"2319":0.11661038547754288,"2320":0.030377715826034546,"2321":0.06393320113420486,"2322":0.12791313230991364,"2323":0.12964588403701782,"2324":-0.002009629039093852,"2325":-0.03064587526023388,"2326":0.0015582803171128035,"2327":0.052356839179992676,"2328":0.1040729284286499,"2329":-0.03555222228169441,"2330":-0.08586026728153229,"2331":0.08183777332305908,"2332":0.06420215219259262,"2333":0.10205720365047455,"2334":-0.031246867030858994,"2335":0.06738218665122986,"2336":-0.229704350233078,"2337":0.14632050693035126,"2338":-0.01957152970135212,"2339":0.1611887812614441,"2340":-0.23898600041866302,"2341":0.16022172570228577,"2342":0.24048329889774323,"2343":-0.2612234354019165,"2344":0.0640636682510376,"2345":0.04626180976629257,"2346":-0.10816395282745361,"2347":0.19538787007331848,"2348":-0.052342116832733154,"2349":-0.26282966136932373,"2350":-0.05656920745968819,"2351":0.13003213703632355,"2352":0.2210887223482132,"2353":-0.09852509945631027,"2354":0.08900327235460281,"2355":-0.09497228264808655,"2356":-0.20217369496822357,"2357":-0.20403923094272614,"2358":0.2071518450975418,"2359":0.03419888764619827,"2360":-0.442090779542923,"2361":0.1291792392730713,"2362":-0.31663942337036133,"2363":-0.1416478306055069,"2364":-0.16068145632743835,"2365":-0.22370168566703796,"2366":-0.2572540044784546,"2367":-0.06884954869747162,"2368":0.06204354017972946,"2369":-0.05501290410757065,"2370":0.01616823486983776,"2371":-0.07467019557952881,"2372":-0.10703537613153458,"2373":-0.0854921042919159,"2374":0.17807680368423462,"2375":0.08821018040180206,"2376":-0.14704923331737518,"2377":0.09100426733493805,"2378":-0.1938050240278244,"2379":-0.24883845448493958,"2380":0.07769649475812912,"2381":-0.07009775191545486,"2382":-0.08049904555082321,"2383":-0.040098775178194046,"2384":-0.13243678212165833,"2385":-0.04722176864743233,"2386":-0.0720803439617157,"2387":0.12791821360588074,"2388":0.12187595665454865,"2389":-0.11599571257829666,"2390":-0.07901040464639664,"2391":-0.24224427342414856,"2392":0.10449119657278061,"2393":-0.15221340954303741,"2394":0.09595858305692673,"2395":0.108127161860466,"2396":0.019435632973909378,"2397":-0.02665405347943306,"2398":0.11815366894006729,"2399":0.08951237052679062,"2400":-0.19168344140052795,"2401":-0.04506015032529831,"2402":0.11511491239070892,"2403":0.0736471489071846,"2404":-0.245623379945755,"2405":-0.26400837302207947,"2406":0.12104679644107819,"2407":0.2251589298248291,"2408":-0.023544257506728172,"2409":-0.13509543240070343,"2410":-0.09620296210050583,"2411":0.283486932516098,"2412":-0.27363017201423645,"2413":-0.35668691992759705,"2414":0.18913671374320984,"2415":0.12052223086357117,"2416":-0.08149996399879456,"2417":-0.05059286579489708,"2418":0.057691045105457306,"2419":-0.25223836302757263,"2420":-0.035151250660419464,"2421":0.01768757775425911,"2422":-0.12824980914592743,"2423":0.2477172464132309,"2424":-0.21360993385314941,"2425":0.014244608581066132,"2426":-0.027497585862874985,"2427":0.06362003833055496,"2428":0.01403794065117836,"2429":-0.3107030689716339,"2430":0.00020441273227334023,"2431":0.007730848155915737,"2432":-0.07243809849023819,"2433":-0.051145631819963455,"2434":0.1817103773355484,"2435":-0.010098903439939022,"2436":0.033026885241270065,"2437":0.08888953179121017,"2438":0.03948409855365753,"2439":0.09271005541086197,"2440":-0.05059235915541649,"2441":0.02543484792113304,"2442":-0.028967546299099922,"2443":0.04322288930416107,"2444":-0.029215775430202484,"2445":-0.04133990779519081,"2446":-0.04274899512529373,"2447":0.07499092817306519,"2448":0.06539131700992584,"2449":-0.05240938067436218,"2450":0.07580156624317169,"2451":-0.027003804221749306,"2452":-0.1534237414598465,"2453":-0.0028881700709462166,"2454":-0.0518537312746048,"2455":0.09342630952596664,"2456":0.04355956241488457,"2457":0.12055190652608871,"2458":0.036447156220674515,"2459":-0.03192589432001114,"2460":0.021683096885681152,"2461":0.07722275704145432,"2462":0.008879750967025757,"2463":0.11375947296619415,"2464":0.10981493443250656,"2465":0.13238520920276642,"2466":0.3965456783771515,"2467":0.09442725777626038,"2468":-0.09340857714414597,"2469":-0.010266715660691261,"2470":0.038983117789030075,"2471":-0.055108554661273956,"2472":0.024833017960190773,"2473":0.23525552451610565,"2474":-0.1475776582956314,"2475":0.03230806812644005,"2476":0.14689160883426666,"2477":-0.16667824983596802,"2478":-0.0511600561439991,"2479":0.09275103360414505,"2480":0.01073738094419241,"2481":-0.021102329716086388,"2482":0.056958287954330444,"2483":0.04364282637834549,"2484":0.0182319488376379,"2485":0.017691588029265404,"2486":0.05405509099364281,"2487":0.04198236018419266,"2488":0.12009349465370178,"2489":-0.02557903714478016,"2490":-0.015038587152957916,"2491":0.010164705105125904,"2492":-0.1263856589794159,"2493":0.02720995806157589,"2494":0.08652853220701218,"2495":0.024991394951939583,"2496":0.04509387165307999,"2497":0.10643191635608673,"2498":0.15944479405879974,"2499":-0.015122524462640285,"2500":-0.03996637836098671,"2501":0.035557013005018234,"2502":0.06382829695940018,"2503":-0.02571430802345276,"2504":0.10368762165307999,"2505":-0.022900963202118874,"2506":-0.12444410473108292,"2507":0.06341352313756943,"2508":0.04707431420683861,"2509":-0.053759701550006866,"2510":-0.04596380516886711,"2511":0.021601267158985138,"2512":0.0881856232881546,"2513":-0.004511857405304909,"2514":0.06832798570394516,"2515":0.08191009610891342,"2516":-0.1720573902130127,"2517":0.032823383808135986,"2518":0.06308900564908981,"2519":0.027763690799474716,"2520":0.15610149502754211,"2521":0.03845816105604172,"2522":-0.13425199687480927,"2523":-0.07453711330890656,"2524":0.04311109706759453,"2525":-0.027651658281683922,"2526":0.06653881818056107,"2527":0.00942952185869217,"2528":0.08808805048465729,"2529":0.06573938578367233,"2530":0.19897547364234924,"2531":0.08522641658782959,"2532":0.036433201283216476,"2533":-0.11302432417869568,"2534":0.01279994286596775,"2535":-0.05855301022529602,"2536":0.1480042189359665,"2537":-0.037263110280036926,"2538":-0.03814084082841873,"2539":-0.00436369888484478,"2540":0.06685497611761093,"2541":-0.02388913184404373,"2542":-0.003231670241802931,"2543":0.009388928301632404,"2544":0.021286124363541603,"2545":0.06050517410039902,"2546":0.11542373150587082,"2547":-0.1180047020316124,"2548":0.016843518242239952,"2549":-0.06890495121479034,"2550":-0.11552143096923828,"2551":0.10130960494279861,"2552":0.02548072300851345,"2553":0.05334843322634697,"2554":-0.04472142830491066,"2555":-0.016855796799063683,"2556":0.07052205502986908,"2557":0.015573898330330849,"2558":-0.023518521338701248,"2559":0.12792205810546875,"2560":-0.15966975688934326,"2561":0.28124845027923584,"2562":-0.20899631083011627,"2563":-0.03607648238539696,"2564":-0.08083054423332214,"2565":0.001039364724420011,"2566":0.2695119380950928,"2567":-0.04822217673063278,"2568":0.08960692584514618,"2569":0.09449201077222824,"2570":-0.12059653550386429,"2571":0.11745412647724152,"2572":-0.14186665415763855,"2573":-0.032347023487091064,"2574":-0.15496449172496796,"2575":0.07110197097063065,"2576":0.05579454079270363,"2577":0.004577168263494968,"2578":0.11791260540485382,"2579":-0.17456716299057007,"2580":-0.0830407664179802,"2581":-0.07146243005990982,"2582":0.08609423041343689,"2583":-0.17057615518569946,"2584":-0.03199627250432968,"2585":0.2077648788690567,"2586":0.11774636059999466,"2587":-0.03919009119272232,"2588":0.12102414667606354,"2589":-0.04324667528271675,"2590":0.010418918915092945,"2591":0.30013373494148254,"2592":0.17960800230503082,"2593":0.13505464792251587,"2594":-0.09014327079057693,"2595":0.13605952262878418,"2596":-0.1722266525030136,"2597":-0.14090995490550995,"2598":-0.0004493419546633959,"2599":-0.1511804610490799,"2600":0.09176117926836014,"2601":0.07052768766880035,"2602":-0.13973447680473328,"2603":0.15523430705070496,"2604":0.16668982803821564,"2605":0.05249004811048508,"2606":-0.07292573899030685,"2607":0.045946698635816574,"2608":-0.0906190574169159,"2609":-0.0456535778939724,"2610":0.13235311210155487,"2611":-0.12349545955657959,"2612":0.11376604437828064,"2613":-0.07440867274999619,"2614":0.007189514581114054,"2615":0.14416058361530304,"2616":-0.10836531966924667,"2617":-0.027354981750249863,"2618":0.01249876618385315,"2619":0.009006301872432232,"2620":0.14537379145622253,"2621":-0.1428699791431427,"2622":0.07080026715993881,"2623":-0.04717475548386574,"2624":0.06780266016721725,"2625":0.11016622185707092,"2626":0.0687497928738594,"2627":0.14451846480369568,"2628":-0.14205096662044525,"2629":-0.16841119527816772,"2630":0.019741255789995193,"2631":-0.03438189625740051,"2632":0.04199286922812462,"2633":0.10685881972312927,"2634":-0.079245924949646,"2635":0.006957089528441429,"2636":0.029910322278738022,"2637":0.0003363134164828807,"2638":-0.015729065984487534,"2639":0.029927732422947884,"2640":-0.0047248718328773975,"2641":0.022081848233938217,"2642":0.14005745947360992,"2643":-0.06691844016313553,"2644":0.018444491550326347,"2645":-0.03228282183408737,"2646":-0.11853957921266556,"2647":0.0954848900437355,"2648":0.01072919461876154,"2649":0.03774581104516983,"2650":0.06304342299699783,"2651":0.07438594847917557,"2652":0.07942992448806763,"2653":0.05007549747824669,"2654":0.07684747874736786,"2655":-0.00034790424979291856,"2656":0.08393202722072601,"2657":-0.06269679218530655,"2658":0.06298472732305527,"2659":0.04932193458080292,"2660":-0.18226905167102814,"2661":-0.2827587425708771,"2662":-0.07706912606954575,"2663":-0.1257622390985489,"2664":-0.085658498108387,"2665":0.03337959945201874,"2666":-0.18896494805812836,"2667":0.07598278671503067,"2668":0.13735124468803406,"2669":-0.018028076738119125,"2670":0.015463670715689659,"2671":-0.06126290559768677,"2672":-0.13464689254760742,"2673":-0.1043044775724411,"2674":0.15457063913345337,"2675":-0.01641131564974785,"2676":0.033740997314453125,"2677":0.0991930216550827,"2678":-0.10187266767024994,"2679":0.039498165249824524,"2680":-0.03817814216017723,"2681":0.10399968922138214,"2682":0.01293863169848919,"2683":-0.06716746836900711,"2684":0.15503613650798798,"2685":0.029513312503695488,"2686":0.11766268312931061,"2687":0.009011471644043922,"2688":0.02253320813179016,"2689":0.12951110303401947,"2690":-0.1608138531446457,"2691":0.032565899193286896,"2692":-0.21817705035209656,"2693":-0.32246771454811096,"2694":-0.06163544952869415,"2695":-0.07138996571302414,"2696":0.1522950679063797,"2697":0.07764717936515808,"2698":-0.08485227078199387,"2699":0.1272304803133011,"2700":0.031168831512331963,"2701":0.04257373884320259,"2702":0.06598173826932907,"2703":0.08240024745464325,"2704":0.02463395521044731,"2705":0.01204346027225256,"2706":0.02157595381140709,"2707":0.028837239369750023,"2708":0.08628185093402863,"2709":-0.19798505306243896,"2710":-0.15620945394039154,"2711":-0.019262993708252907,"2712":0.0823902040719986,"2713":0.0024137874133884907,"2714":0.13839367032051086,"2715":0.057772014290094376,"2716":0.21569591760635376,"2717":-0.0022875394206494093,"2718":0.13964849710464478,"2719":0.13994355499744415,"2720":0.14502300322055817,"2721":0.04503228887915611,"2722":0.16355524957180023,"2723":0.006712509784847498,"2724":-0.0833229348063469,"2725":-0.11172332614660263,"2726":0.0016295397654175758,"2727":-0.13646970689296722,"2728":0.1018008142709732,"2729":-0.10317951440811157,"2730":-0.08301911503076553,"2731":-0.029140416532754898,"2732":-0.059090785682201385,"2733":0.15209679305553436,"2734":-0.03008219040930271,"2735":-0.03179754689335823,"2736":0.009696430526673794,"2737":-0.031624820083379745,"2738":0.07112386077642441,"2739":-0.0055417283438146114,"2740":0.1940675675868988,"2741":-0.08314894884824753,"2742":0.01583346724510193,"2743":-0.09013574570417404,"2744":0.16395306587219238,"2745":0.08794048428535461,"2746":0.16156105697155,"2747":-0.0911940261721611,"2748":0.09904161095619202,"2749":0.10696534812450409,"2750":0.18244028091430664,"2751":0.21331970393657684,"2752":0.10897821933031082,"2753":-0.07143545895814896,"2754":-0.321021169424057,"2755":-0.28073540329933167,"2756":-0.03421163558959961,"2757":-0.17666903138160706,"2758":-0.1222592368721962,"2759":0.17084789276123047,"2760":-0.18784047663211823,"2761":0.03110596537590027,"2762":0.18359626829624176,"2763":-0.011072241701185703,"2764":-0.12607835233211517,"2765":-0.03081916645169258,"2766":0.10166652500629425,"2767":-0.03976469486951828,"2768":-0.12169191986322403,"2769":-0.060573019087314606,"2770":-0.16907928884029388,"2771":0.037317994982004166,"2772":0.20892292261123657,"2773":-0.07105815410614014,"2774":-0.16595040261745453,"2775":-0.002534948056563735,"2776":-0.30675262212753296,"2777":-0.10918967425823212,"2778":0.30579715967178345,"2779":-0.1443730592727661,"2780":0.15764360129833221,"2781":-0.15284627676010132,"2782":0.12626150250434875,"2783":0.0516740158200264,"2784":0.07537271082401276,"2785":0.025417983531951904,"2786":0.11451005190610886,"2787":0.1441570520401001,"2788":-0.13339293003082275,"2789":-0.21598675847053528,"2790":-0.07357491552829742,"2791":-0.13651837408542633,"2792":0.07222350686788559,"2793":0.14583076536655426,"2794":-0.08280420303344727,"2795":0.09769155085086823,"2796":0.1721878945827484,"2797":0.05646030232310295,"2798":0.08689677715301514,"2799":-0.026525035500526428,"2800":-0.12861734628677368,"2801":-0.027718212455511093,"2802":0.11499465256929398,"2803":0.11211350560188293,"2804":0.027807343751192093,"2805":-0.1011003702878952,"2806":-0.034038204699754715,"2807":0.0030117707792669535,"2808":0.04900158569216728,"2809":0.019692663103342056,"2810":0.0587054044008255,"2811":-0.13084954023361206,"2812":0.05474304035305977,"2813":-0.05356442928314209,"2814":-0.004857113119214773,"2815":0.03304353728890419,"2816":0.08300498872995377,"2817":0.06529632210731506,"2818":-0.11582991480827332,"2819":0.05273355916142464,"2820":-0.03056260757148266,"2821":-0.22993923723697662,"2822":-0.02167517878115177,"2823":-0.03231174498796463,"2824":0.09407241642475128,"2825":0.17422766983509064,"2826":-0.08814073354005814,"2827":0.11091230064630508,"2828":0.06828632205724716,"2829":0.020626267418265343,"2830":-0.07326450198888779,"2831":0.10856495797634125,"2832":-0.05005364492535591,"2833":0.04419756680727005,"2834":0.1750173419713974,"2835":-0.07476767897605896,"2836":0.12426162511110306,"2837":-0.05291780084371567,"2838":0.0074911233969032764,"2839":-0.06500689685344696,"2840":0.08820933103561401,"2841":0.05119103193283081,"2842":0.04205308482050896,"2843":-0.17087896168231964,"2844":0.013597002252936363,"2845":-0.027104884386062622,"2846":0.05472489073872566,"2847":0.021348116919398308,"2848":-0.3253746032714844,"2849":0.2782999277114868,"2850":-0.16763071715831757,"2851":0.10937647521495819,"2852":-0.16750536859035492,"2853":0.17138876020908356,"2854":0.2554643452167511,"2855":-0.1065736711025238,"2856":0.09792432934045792,"2857":0.13843905925750732,"2858":-0.02785881981253624,"2859":0.12103445827960968,"2860":-0.20885682106018066,"2861":-0.20477309823036194,"2862":-0.05923709645867348,"2863":0.26621073484420776,"2864":0.1735539585351944,"2865":0.011301192454993725,"2866":0.24173305928707123,"2867":-0.16293129324913025,"2868":-0.15532197058200836,"2869":-0.1021442711353302,"2870":0.28341034054756165,"2871":-0.06825675815343857,"2872":-0.2009032815694809,"2873":0.15120524168014526,"2874":-0.014141999185085297,"2875":-0.045929621905088425,"2876":0.052396465092897415,"2877":-0.11584396660327911,"2878":-0.2942964732646942,"2879":0.1653503179550171,"2880":0.09735310822725296,"2881":-0.10760597139596939,"2882":-0.2802801728248596,"2883":-0.2618264853954315,"2884":0.14523568749427795,"2885":-0.18730947375297546,"2886":-0.16621807217597961,"2887":0.10568177700042725,"2888":-0.2864251434803009,"2889":0.04654170945286751,"2890":0.28381219506263733,"2891":-0.08768138289451599,"2892":0.007354882080107927,"2893":-0.05539156496524811,"2894":0.11413229256868362,"2895":-0.11679988354444504,"2896":-0.14365553855895996,"2897":0.03323331102728844,"2898":-0.09163947403430939,"2899":0.03400394693017006,"2900":0.26440486311912537,"2901":-0.03678256645798683,"2902":-0.24440616369247437,"2903":-0.07971639931201935,"2904":-0.23547208309173584,"2905":-0.2906128168106079,"2906":0.08852608501911163,"2907":-0.19362296164035797,"2908":-0.16656486690044403,"2909":0.039984945207834244,"2910":0.23746918141841888,"2911":-0.051180027425289154,"2912":-0.294712632894516,"2913":-0.1244439035654068,"2914":0.2525177299976349,"2915":0.23754437267780304,"2916":-0.0959102064371109,"2917":-0.08718392997980118,"2918":0.18413953483104706,"2919":0.09594995528459549,"2920":-0.19076409935951233,"2921":0.2536236345767975,"2922":0.02340230904519558,"2923":0.07399752736091614,"2924":-0.2034887671470642,"2925":0.05913610756397247,"2926":0.225397989153862,"2927":0.07915189117193222,"2928":0.03547871112823486,"2929":-0.060770805925130844,"2930":0.12773163616657257,"2931":-0.12226461619138718,"2932":-0.15707182884216309,"2933":0.12134817242622375,"2934":-0.03598643094301224,"2935":0.21540775895118713,"2936":-0.1886051595211029,"2937":-0.010080336593091488,"2938":-0.008441117592155933,"2939":0.35688871145248413,"2940":0.06142768636345863,"2941":-0.15336726605892181,"2942":-0.15647825598716736,"2943":-0.17653614282608032,"2944":0.16235429048538208,"2945":0.08439819514751434,"2946":0.010009923949837685,"2947":0.16186021268367767,"2948":-0.023616891354322433,"2949":-0.08392930030822754,"2950":0.06344149261713028,"2951":-0.01319722831249237,"2952":0.08398149907588959,"2953":0.13370577991008759,"2954":-0.15759524703025818,"2955":-0.05451548472046852,"2956":0.005726953037083149,"2957":-0.0879492238163948,"2958":-0.1258665919303894,"2959":0.15523770451545715,"2960":0.08348898589611053,"2961":-0.004606626462191343,"2962":0.013870499096810818,"2963":0.051190994679927826,"2964":0.0331604965031147,"2965":-0.03012080490589142,"2966":0.05091281980276108,"2967":0.024385174736380577,"2968":0.05457393825054169,"2969":0.08984177559614182,"2970":0.13688276708126068,"2971":-0.0304229948669672,"2972":0.10174307227134705,"2973":0.038898859173059464,"2974":0.09726525098085403,"2975":0.04291673004627228,"2976":0.01985784061253071,"2977":0.1174570620059967,"2978":-0.10144335776567459,"2979":-0.01616594009101391,"2980":-0.08805429190397263,"2981":-0.24466566741466522,"2982":0.04672754183411598,"2983":0.04414227977395058,"2984":-0.07396584749221802,"2985":0.14738735556602478,"2986":0.14799922704696655,"2987":0.16262555122375488,"2988":0.26128190755844116,"2989":-0.14108212292194366,"2990":0.06920108199119568,"2991":0.2364865243434906,"2992":-0.051491156220436096,"2993":-0.06402525305747986,"2994":0.09307258576154709,"2995":0.03282689303159714,"2996":0.13017623126506805,"2997":-0.024207809939980507,"2998":0.07816073298454285,"2999":-0.05012344568967819,"3000":-0.07994507253170013,"3001":-0.03087882325053215,"3002":-0.18016017973423004,"3003":-0.06350012123584747,"3004":-0.08348440378904343,"3005":-0.15771086513996124,"3006":0.1077294871211052,"3007":-0.0656571164727211,"3008":0.1274615377187729,"3009":0.10700829327106476,"3010":-0.029280653223395348,"3011":0.06449201703071594,"3012":-0.2089577615261078,"3013":-0.19546610116958618,"3014":-0.024819884449243546,"3015":-0.12740609049797058,"3016":-0.04395672678947449,"3017":0.1451626569032669,"3018":-0.011408304795622826,"3019":-0.015054750256240368,"3020":-0.04396821931004524,"3021":-0.0017434187466278672,"3022":0.008345698937773705,"3023":0.16163811087608337,"3024":-0.04936959221959114,"3025":-0.007671920116990805,"3026":0.10073553025722504,"3027":0.08703815937042236,"3028":0.07722200453281403,"3029":-0.049229975789785385,"3030":0.07036028057336807,"3031":-0.03060968779027462,"3032":-0.04249507188796997,"3033":0.037746258080005646,"3034":0.04006123170256615,"3035":-0.07295915484428406,"3036":0.11928927898406982,"3037":-0.18053771555423737,"3038":0.12047184258699417,"3039":0.07857814431190491,"3040":0.12671023607254028,"3041":0.1550743728876114,"3042":-0.06417009979486465,"3043":0.039519790560007095,"3044":-0.17922882735729218,"3045":-0.15602895617485046,"3046":-0.03691842779517174,"3047":-0.021944105625152588,"3048":0.1341840773820877,"3049":0.02964947000145912,"3050":-0.15108509361743927,"3051":0.0009815683588385582,"3052":-0.04436936974525452,"3053":0.07671283930540085,"3054":-0.06262245029211044,"3055":-0.09093616157770157,"3056":-0.02228030562400818,"3057":-0.09023686498403549,"3058":0.15464305877685547,"3059":0.06541936844587326,"3060":0.16149544715881348,"3061":-0.02774525247514248,"3062":0.022386597469449043,"3063":-0.04860604181885719,"3064":0.061430275440216064,"3065":-0.09843919426202774,"3066":0.025280646979808807,"3067":-0.09969823062419891,"3068":0.03490347042679787,"3069":-0.10845313966274261,"3070":0.10176149010658264,"3071":0.008668873459100723,"3072":-0.19035951793193817,"3073":-0.24645063281059265,"3074":-0.06881693750619888,"3075":0.05188516154885292,"3076":0.09075910598039627,"3077":0.01946069300174713,"3078":-0.12251876294612885,"3079":-0.05546480044722557,"3080":0.22473886609077454,"3081":-0.13074851036071777,"3082":-0.1103050708770752,"3083":0.11562521755695343,"3084":0.03792661800980568,"3085":-0.11629736423492432,"3086":0.08470359444618225,"3087":-0.14464536309242249,"3088":0.16553741693496704,"3089":0.05550480633974075,"3090":-0.17524941265583038,"3091":-0.06694745272397995,"3092":0.06575798988342285,"3093":0.048441655933856964,"3094":0.07095975428819656,"3095":0.0326862595975399,"3096":-0.19558528065681458,"3097":0.16488459706306458,"3098":-0.010675732046365738,"3099":0.03549063205718994,"3100":0.008748946711421013,"3101":-0.125303253531456,"3102":-0.03218214586377144,"3103":0.11554952710866928,"3104":-0.13616809248924255,"3105":-0.1282796412706375,"3106":-0.04738016426563263,"3107":-0.18611446022987366,"3108":0.14923520386219025,"3109":-0.20291873812675476,"3110":-0.08808070421218872,"3111":-0.03640994057059288,"3112":0.0150973005220294,"3113":0.11643294990062714,"3114":0.1449013501405716,"3115":-0.016026347875595093,"3116":-0.11712245643138885,"3117":0.057038791477680206,"3118":0.04239850118756294,"3119":-0.08029842376708984,"3120":-0.1910039484500885,"3121":-0.03229239210486412,"3122":-0.1435648798942566,"3123":-0.02207232639193535,"3124":-0.10810357332229614,"3125":0.10282489657402039,"3126":0.09291039407253265,"3127":0.0353570282459259,"3128":-0.04549505561590195,"3129":-0.016644051298499107,"3130":0.00887742917984724,"3131":-0.0567312054336071,"3132":0.01739330030977726,"3133":0.04913581162691116,"3134":-0.06087683513760567,"3135":-0.11032884567975998,"3136":-0.1137622818350792,"3137":0.025227857753634453,"3138":-0.11592433601617813,"3139":-0.16295699775218964,"3140":0.23732881247997284,"3141":0.06171553209424019,"3142":-0.09643878042697906,"3143":-0.10936474800109863,"3144":-0.002111923648044467,"3145":0.06740757077932358,"3146":-0.021575890481472015,"3147":0.02731917053461075,"3148":0.10592856258153915,"3149":0.06795758008956909,"3150":0.1019323468208313,"3151":-0.0026651504449546337,"3152":0.040834762156009674,"3153":-0.09276705235242844,"3154":-0.19598525762557983,"3155":-0.1195494756102562,"3156":-0.09927776455879211,"3157":0.10713160037994385,"3158":0.03846132382750511,"3159":0.09510578960180283,"3160":-0.17172065377235413,"3161":-0.06872804462909698,"3162":0.20585796236991882,"3163":0.017332233488559723,"3164":0.08167190849781036,"3165":0.13284943997859955,"3166":0.07435829192399979,"3167":0.05810641497373581,"3168":-0.05592188611626625,"3169":-0.10081945359706879,"3170":-0.14585351943969727,"3171":-0.1414608657360077,"3172":0.11492693424224854,"3173":-0.01186312548816204,"3174":0.11208630353212357,"3175":-0.05843751132488251,"3176":-0.01181881409138441,"3177":-0.0169764906167984,"3178":0.046725865453481674,"3179":-0.10341719537973404,"3180":0.02535467967391014,"3181":0.11404507607221603,"3182":0.06286156922578812,"3183":-0.09542466700077057,"3184":0.0471402108669281,"3185":0.045903563499450684,"3186":-0.2148848921060562,"3187":-0.12539878487586975,"3188":-0.006581551395356655,"3189":-0.024219781160354614,"3190":0.030409041792154312,"3191":0.09445244818925858,"3192":-0.03822840377688408,"3193":-0.10678085684776306,"3194":-0.06955152004957199,"3195":-0.02200576849281788,"3196":0.12763161957263947,"3197":0.07305905222892761,"3198":-0.0846310630440712,"3199":-0.06351083517074585,"3200":-0.07442978024482727,"3201":-0.10989122837781906,"3202":-0.09256681799888611,"3203":-0.2729675769805908,"3204":0.14147141575813293,"3205":-0.062023013830184937,"3206":0.014023923315107822,"3207":-0.2284710705280304,"3208":-0.04501114785671234,"3209":0.11998406797647476,"3210":0.02555646374821663,"3211":-0.02956375665962696,"3212":-0.06032680347561836,"3213":-0.01598920300602913,"3214":0.07231034338474274,"3215":-0.06033243238925934,"3216":0.04949428141117096,"3217":-0.036926839500665665,"3218":-0.2255868911743164,"3219":-0.15188919007778168,"3220":-0.026013217866420746,"3221":0.07300194352865219,"3222":-0.15030187368392944,"3223":0.08220384269952774,"3224":0.08168989419937134,"3225":-0.05430794879794121,"3226":0.09183578193187714,"3227":-0.037186529487371445,"3228":0.17041227221488953,"3229":0.11303219199180603,"3230":-0.12927864491939545,"3231":0.13496725261211395,"3232":-0.06582848727703094,"3233":-0.38545161485671997,"3234":-0.17238964140415192,"3235":-0.15534399449825287,"3236":0.12306258082389832,"3237":0.0337105318903923,"3238":0.015042477287352085,"3239":-0.25211915373802185,"3240":0.0022342358715832233,"3241":0.18878376483917236,"3242":0.043519701808691025,"3243":-0.13696295022964478,"3244":-0.005119269713759422,"3245":-0.032486993819475174,"3246":-0.05764176324009895,"3247":-0.1554265320301056,"3248":0.19069236516952515,"3249":-0.0415833443403244,"3250":-0.26184403896331787,"3251":-0.17921695113182068,"3252":0.10252630710601807,"3253":-0.058241214603185654,"3254":0.04253924638032913,"3255":0.024425780400633812,"3256":-0.1844884753227234,"3257":-0.004277416504919529,"3258":0.20848795771598816,"3259":-0.16799533367156982,"3260":0.07663002610206604,"3261":0.04650944098830223,"3262":-0.07981959730386734,"3263":0.045850928872823715,"3264":-0.13180503249168396,"3265":0.0381118580698967,"3266":-0.0817328467965126,"3267":-0.06650196015834808,"3268":0.12377074360847473,"3269":-0.12371351569890976,"3270":-0.009605418890714645,"3271":-0.07100564986467361,"3272":-0.08977515250444412,"3273":-0.02679610811173916,"3274":-0.05369345843791962,"3275":-0.23538054525852203,"3276":-0.0028835642151534557,"3277":-0.1328045129776001,"3278":-0.007754935882985592,"3279":0.08728892356157303,"3280":-0.1720299869775772,"3281":-0.04517316445708275,"3282":0.0005362457595765591,"3283":0.16507332026958466,"3284":0.0031757033430039883,"3285":-0.018081121146678925,"3286":-0.10781815648078918,"3287":-0.18848104774951935,"3288":0.08550076931715012,"3289":-0.1468726545572281,"3290":0.27751556038856506,"3291":-0.11935541778802872,"3292":0.1978650689125061,"3293":0.005864354781806469,"3294":0.034328341484069824,"3295":0.065313421189785,"3296":-0.039196357131004333,"3297":-0.28971564769744873,"3298":-0.2097059041261673,"3299":-0.1685665398836136,"3300":0.12727227807044983,"3301":-0.0520319864153862,"3302":-0.08831988275051117,"3303":-0.1150534451007843,"3304":-0.01996445655822754,"3305":0.11085890233516693,"3306":0.0900486409664154,"3307":0.11164337396621704,"3308":-0.054675791412591934,"3309":-0.021866898983716965,"3310":0.1151343360543251,"3311":0.053826794028282166,"3312":-0.07619235664606094,"3313":-0.10768793523311615,"3314":-0.22351306676864624,"3315":-0.1895662248134613,"3316":-0.10552042722702026,"3317":0.0706859901547432,"3318":0.04285033792257309,"3319":0.15027305483818054,"3320":-0.12368383258581161,"3321":-0.07115679234266281,"3322":0.09181568026542664,"3323":-0.023392904549837112,"3324":0.08310927450656891,"3325":0.1297178417444229,"3326":-0.02533799596130848,"3327":-0.06765288859605789,"3328":-0.16464227437973022,"3329":-0.23259001970291138,"3330":0.0518973134458065,"3331":-0.08500811457633972,"3332":0.10073491185903549,"3333":0.01393370795994997,"3334":0.02589840441942215,"3335":0.04506923630833626,"3336":0.1807674914598465,"3337":-0.012329421937465668,"3338":0.06191515550017357,"3339":-0.1073085144162178,"3340":-0.02867257222533226,"3341":-0.06296367943286896,"3342":0.0793408453464508,"3343":-0.15099695324897766,"3344":-0.09770186990499496,"3345":-0.01881924644112587,"3346":-0.2078903764486313,"3347":-0.034711599349975586,"3348":-0.12540659308433533,"3349":-0.0547015443444252,"3350":0.029938174411654472,"3351":0.17830699682235718,"3352":-0.024259494617581367,"3353":0.04387367516756058,"3354":0.157656729221344,"3355":-0.02607215754687786,"3356":0.032850753515958786,"3357":-0.04383699968457222,"3358":-0.0706358477473259,"3359":0.08355983346700668,"3360":-0.03564774617552757,"3361":-0.12283167988061905,"3362":-0.022433243691921234,"3363":0.3028574287891388,"3364":-0.15045076608657837,"3365":0.07216480374336243,"3366":-0.04722796753048897,"3367":0.045664526522159576,"3368":0.3107134997844696,"3369":-0.08746648579835892,"3370":-0.06042468175292015,"3371":0.0275658518075943,"3372":-0.06063706427812576,"3373":-0.2532893717288971,"3374":0.11523757129907608,"3375":-0.14834682643413544,"3376":0.1310562938451767,"3377":0.037342917174100876,"3378":0.07543102651834488,"3379":-0.11726648360490799,"3380":-0.045406538993120193,"3381":-0.17361371219158173,"3382":-0.07038872689008713,"3383":0.24900168180465698,"3384":-0.15376394987106323,"3385":0.22594352066516876,"3386":-0.19448263943195343,"3387":0.1342150866985321,"3388":-0.07183779031038284,"3389":-0.23658980429172516,"3390":-0.07722525298595428,"3391":-0.008879481814801693,"3392":-0.00462450971826911,"3393":0.025128811597824097,"3394":0.07429912686347961,"3395":-0.16339518129825592,"3396":0.14636415243148804,"3397":-0.2187478393316269,"3398":0.11015144735574722,"3399":0.1617201566696167,"3400":-0.20898354053497314,"3401":0.011492910794913769,"3402":0.0982770100235939,"3403":-0.129439115524292,"3404":-0.16498824954032898,"3405":-0.07768163830041885,"3406":0.06953918188810349,"3407":0.05893268436193466,"3408":-0.3134012222290039,"3409":-0.08450300991535187,"3410":-0.03545210883021355,"3411":0.13616694509983063,"3412":0.014348640106618404,"3413":-0.07538721710443497,"3414":-0.13662764430046082,"3415":-0.0739976167678833,"3416":0.1497904360294342,"3417":-0.2347375899553299,"3418":0.24462009966373444,"3419":-0.0013970003928989172,"3420":-0.03298022598028183,"3421":0.09872499853372574,"3422":0.027834871783852577,"3423":0.08662712574005127,"3424":-0.08884825557470322,"3425":0.23512957990169525,"3426":0.021995367482304573,"3427":-0.20830029249191284,"3428":-0.3013841211795807,"3429":-0.11734698712825775,"3430":0.020536916330456734,"3431":-0.20844769477844238,"3432":0.057809844613075256,"3433":-0.07061781734228134,"3434":-0.15421390533447266,"3435":-0.10010258108377457,"3436":-0.04783289134502411,"3437":-0.37256455421447754,"3438":0.05914951488375664,"3439":0.32918715476989746,"3440":-0.0966472327709198,"3441":0.06282251328229904,"3442":0.054494600743055344,"3443":-0.020645195618271828,"3444":-0.0006855640094727278,"3445":0.07784005999565125,"3446":-0.014214877039194107,"3447":0.16004469990730286,"3448":-0.368303507566452,"3449":-0.020587386563420296,"3450":0.09353229403495789,"3451":0.13928355276584625,"3452":0.22618764638900757,"3453":-0.3545800745487213,"3454":-0.11511725187301636,"3455":0.15229620039463043,"3456":0.01909821853041649,"3457":-0.3071625232696533,"3458":-0.0988655686378479,"3459":-0.09949948638677597,"3460":0.08968634903430939,"3461":0.033180419355630875,"3462":0.052269481122493744,"3463":-0.10082651674747467,"3464":-0.06945937871932983,"3465":0.061447422951459885,"3466":0.050157416611909866,"3467":0.12069900333881378,"3468":0.019478226080536842,"3469":0.04019803926348686,"3470":0.11307097971439362,"3471":-0.011250648647546768,"3472":-0.03809940442442894,"3473":-0.06694533675909042,"3474":-0.15166379511356354,"3475":-0.14934414625167847,"3476":-0.056490909308195114,"3477":-0.00013210263568907976,"3478":-0.019388627260923386,"3479":0.05061061307787895,"3480":-0.10451959818601608,"3481":-0.13188597559928894,"3482":0.11609598994255066,"3483":-0.015115663409233093,"3484":0.1540503352880478,"3485":0.12139666825532913,"3486":0.06549470126628876,"3487":0.02179790288209915,"3488":-0.029693609103560448,"3489":-0.1787799447774887,"3490":0.03313295543193817,"3491":-0.024407580494880676,"3492":0.06048642843961716,"3493":-0.1333025097846985,"3494":0.04273711517453194,"3495":0.09803717583417892,"3496":0.08850528299808502,"3497":0.005185290239751339,"3498":0.08799929916858673,"3499":0.2245401293039322,"3500":-0.13454073667526245,"3501":-0.04174887016415596,"3502":0.09363054484128952,"3503":-0.17666323482990265,"3504":-0.04193344712257385,"3505":-0.03255939483642578,"3506":0.10380453616380692,"3507":-0.02584649622440338,"3508":-0.07738157361745834,"3509":-0.07882803678512573,"3510":0.08333402127027512,"3511":0.19574958086013794,